-0.42997903,0.9313557,-2.7556317,2.4047313,-5.650208,3.231857,-3.0196671,-1.6168686,2.2586815,4.119567,-5.0290003,-1.2571675,-2.1756234,-3.193699,-2.1237147,0.5229019,-4.9232903,-0.92501986,-1.0624127,-1.2886261
-0.42219514,-0.7963348,0.4207876,-1.8227344,-5.0722,6.8222823,-1.7065725,-1.4245539,-1.0506032,1.4666651,-1.6959686,-1.5713933,-2.1561975,-0.9567518,-2.0282612,0.50459033,-1.5513235,-0.8737702,-0.86818546,-2.2907357
-5.8578444,0.6165911,1.1893393,6.2560368,9.58538,5.579871,2.911487,-3.365773,-7.921998,-20.085167,-14.230644,-1.0545759,4.616575,-7.5489206,-13.825158,-12.913566,-8.575993,-13.172064,-15.69163,-10.125844
-1.348013,2.252974,-4.459167,-0.8914205,1.3261977,4.2050657,-3.9730923,2.842725,-3.7235854,3.351186,-4.2557116,-1.0266795,-1.2079638,-0.4927403,-4.552202,-4.344096,-4.194605,-1.3100566,4.1078796,-6.0303574
-1.3221937,1.3575177,4.324651,-2.5389318,-2.259016,-6.030124,-2.6714814,-1.521828,-1.3054161,-3.7219827,-3.4018083,-5.0606737,4.665225,-2.260473,3.0493205,-3.5029948,1.3526474,-0.40166688,-0.7858656,1.9789969
-1.3221655,0.21004288,-0.15938456,1.6594971,-0.46032894,-0.80279917,-2.4747388,-1.0699003,-0.83618605,0.54536074,0.3290135,-1.8138368,-1.3775239,-1.1793072,-2.7052438,4.6736627,-1.3270286,-1.1226618,-1.264737,-2.6422381
1.0435414,-3.0152855,8.864439,-5.5517564,5.8002834,-4.623811,1.0298537,3.3670816,-6.204498,4.3763175,-0.7810827,-9.630156,-8.144843,0.57738286,2.8573668,-5.031258,-10.719634,6.461609,1.2745335,-10.716664
-2.600286,1.4871992,-1.8320416,4.370456,4.241402,-5.6609116,-4.7808266,-7.1777854,7.810715,-2.0073938,-5.206675,-3.158959,-1.4804506,-9.767666,8.7133,0.6925518,-2.099022,-4.592902,-0.62408406,5.7652187
1.5616382,2.7761927,-9.900402,-12.319254,4.2330523,-5.044913,-6.722768,-8.861681,-16.472277,-17.780884,-13.198744,-7.714844,-10.918565,-2.421355,-11.779153,1.9697233,-9.569545,3.1842961,1.9157994,8.817699
-1.8829118,0.95823747,1.475855,-2.6520789,1.9830743,-0.5204689,-2.9261155,-1.3157839,-0.74212766,-3.7662458,1.3217247,-1.6113744,-0.8991824,-1.8162361,-1.9906671,5.134727,-1.2896453,-1.1514596,-0.32124653,-3.6987648
5.970049,-1.5602897,-4.053698,-11.905477,-9.462947,7.5116916,-4.717792,-8.348432,-11.843949,1.6954721,7.8738813,-7.913268,-6.5087934,-7.38972,9.2513075,-11.417388,-7.80098,-5.9172096,-5.2428384,-0.43526098
-0.83447933,0.54109484,0.9689396,-0.38702098,2.2987552,-0.7789707,-0.8279954,-1.140225,-1.1903859,-0.6410821,-1.089717,-1.6554903,-0.9028821,-1.0302782,-1.2765867,-0.58098954,-1.4689837,-1.1391008,-1.1030359,-1.300224
-1.0585117,1.0282962,0.26243046,0.67990065,1.7493012,-0.583073,-2.8848288,-1.1578219,-1.1271412,-0.53144133,-1.0799531,-1.7035215,-1.3709819,-0.71870834,-1.4532322,-1.2685567,-1.547579,-1.1147919,-1.131172,-1.413885
-0.39071107,0.8282795,1.0589815,-2.8371248,-0.8075941,1.1256311,-5.5323505,-1.1543152,-0.83706766,-1.2699642,-1.0558301,-1.1743062,-1.6464117,-0.6345624,-1.7579023,-0.8985953,-1.0603935,-1.0384511,-0.8226296,-1.4756082
-2.087932,0.564025,-1.8284222,5.222241,0.2891573,-8.171137,1.3249441,-6.185762,0.9959559,-1.5274731,4.822742,-2.538352,-3.3601649,6.6759357,-5.932862,-0.80195165,-8.57129,2.1412628,0.7274328,-11.310467
0.119224496,-0.08738235,1.2742181,-2.4709277,1.6742524,-1.3857071,0.34116834,-1.8072835,-1.8324081,-0.7608247,-1.5247442,-1.3902642,-2.5210679,-0.74334335,-2.3902955,-1.552893,-1.2479979,-1.0667163,-0.8463581,-2.2222712
-1.0551142,0.10903631,0.21109591,-0.22341132,0.8823678,2.9672606,-2.6464825,-0.86180043,-0.34537882,2.0158381,-1.1474309,-1.8267838,-1.2884102,-1.0685475,-1.631732,3.423695,-1.3734795,-1.1235762,-1.4984473,-3.343283
-1.8384606,1.853351,5.0843983,0.48649597,-14.396825,0.77199394,-10.416324,-5.536325,-9.693324,6.9169908,-12.059634,-4.407875,-7.9623713,-10.4237385,-1.9881119,-3.9138489,9.184946,-6.2557406,4.8334327,-0.15600874
-2.1755505,1.2972227,1.6150601,-8.56444,-5.2412972,1.6813896,4.251138,-8.852657,-1.0042353,-3.5009022,0.70329607,0.6088611,-2.9728713,2.247982,-0.064490415,-1.2948653,-2.019794,-0.98785704,-3.67202,-2.1250758
-1.146498,1.2211127,0.27624398,-0.53241104,0.3145866,-0.83753806,-0.31331918,-1.6370524,-1.2153783,0.039042618,-0.8848857,-1.7258382,-1.8204541,-0.8904725,-1.9832283,-1.7664416,-1.5341384,-1.0729082,-1.1956588,-2.4974177
1.5119588,-5.460541,2.2437246,-8.567791,-7.764182,-8.649559,-1.2022537,6.391971,5.377562,1.2396971,6.3554783,-6.4941998,4.503212,-8.505977,-12.378275,0.9492815,-10.791493,-8.657899,-11.876022,3.038763
-0.9008231,1.2453971,1.3152281,-2.2092981,1.955178,1.5993613,-1.8367199,-1.4584771,-1.1053884,-3.9648192,-0.48792332,-1.6140131,-1.3873779,-1.107595,-1.1655865,-3.108588,-1.5470284,-1.1107054,-1.0006827,-1.43931
-0.9109913,0.85923374,1.8459702,0.19980776,2.3389053,0.22856688,-2.6136012,-1.270269,-1.0261873,-3.7725954,-0.8387628,-1.645254,-1.268647,-0.8556804,-1.2611548,-3.0443563,-1.4966387,-1.2090778,-1.1936042,-1.2105219
-0.8305969,1.0039171,0.42761493,-0.7661661,0.3675107,-0.8848627,-2.9904563,-1.1335588,-1.0149096,-0.56763923,-0.6627429,-1.6353436,-1.3039101,-0.91781545,-1.4291248,0.010193562,-1.3793923,-1.0628054,-1.1607517,-1.6016351
4.9437575,-2.9023743,-7.9061217,-5.4347506,-6.5492625,-8.515602,1.1546408,-3.2213516,-2.5569758,-4.238679,-10.080975,10.27455,3.260698,-7.5933805,2.6313689,-3.7224157,6.208354,5.5157394,-5.157464,-10.774923
-0.27753544,-0.061556518,0.63988125,1.3291644,-2.7454808,-1.6416266,-0.61068916,-3.4971588,-0.86908585,-0.4882651,-0.9244149,-1.1729302,-1.4157643,-0.6956844,-0.7163456,-1.0221537,-1.1041875,-0.93859553,-0.86853355,-1.2007455
-1.2153747,0.8204382,-2.1371908,1.8513066,-1.3244305,-1.6585207,-3.688006,-1.4982077,-1.3818918,-0.06569821,1.6541903,-2.0125341,-1.9307752,-1.1796142,-3.4029245,2.2363408,-1.6143578,-1.0507101,-1.5086982,-2.557716
-1.3927885,3.5178802,-3.7315917,-5.0674253,-11.681486,-6.584133,6.010861,-1.6550511,7.6602974,7.648619,-2.2987273,-5.4660783,-1.9371622,-6.198726,-3.1023583,2.839744,-3.1077902,-3.6965227,-5.935337,-3.3393312
-0.8403701,0.80675006,1.4353458,-2.5891228,2.484434,-0.82721436,-2.441304,-1.1500151,-1.0692395,-0.5703593,-0.9748824,-1.6731067,-0.52250797,-0.98796785,-1.1238903,-0.89570016,-1.3993003,-1.1577436,-1.1848874,-1.3089783
-0.3369225,2.3529706,-3.331003,0.0123842,-4.1420765,-0.2787551,-1.7100316,-1.6072222,-0.99778587,-0.35913554,-0.8028454,-1.4051112,-2.0605683,-0.7877109,-1.0714487,-0.5870428,-1.0927801,-0.8158111,-0.70470935,-1.11893
-0.24092227,0.89430743,-2.16142,2.0462828,-0.21594201,-2.466215,-3.6603973,-1.0964756,-0.8864294,-0.3775709,0.5232322,-1.371603,-1.0854384,-0.5183782,-1.7992897,0.012671091,-1.1231455,-0.5490154,-1.4382039,-2.0324728
-1.7226361,-0.028265871,-0.036983263,0.91171277,1.106563,1.6491096,-4.1594553,-6.961893,-0.29228163,-1.9607873,7.0212827,-4.3987656,-7.121271,-9.582251,0.29649198,4.3812065,-0.7448462,5.8575196,-5.4406085,2.1500416
-2.1445415,2.9988043,-0.59960914,-5.5493197,-1.2743208,-2.2425842,-1.2975107,-3.5482776,-1.0558946,0.2545147,-1.1928002,-2.3371136,-4.839418,-1.1737819,0.7511348,-0.33939946,2.4263535,-0.893329,-1.2037218,-1.1388167
-3.3936214,1.9301255,1.3380207,4.5842037,-1.7339779,-7.4025536,-4.9725566,8.21795,-9.547254,-4.1048827,-2.612666,-3.388816,-2.5859993,-9.0646515,2.5154266,-0.5471078,3.2550771,-3.3334742,-4.6121464,-5.8908753
-0.88642955,1.119967,-0.29544398,-2.3647683,2.2911944,-0.5921273,-2.327106,-1.3976599,-1.1063757,-0.6472169,-1.0428935,-1.7474738,-1.3741821,-0.939341,-1.2119948,-0.6470831,-1.4952836,-1.0566357,-1.1053632,-1.3888928
-0.74042857,0.17405063,-0.24717286,-0.29434463,-1.5227156,-1.8571532,0.04421307,-2.808674,-1.2018367,-0.58687305,-0.607232,-1.447382,-1.1515757,-0.4208247,-1.4504923,3.5809004,-1.1390647,-1.0693722,-0.997961,-1.6346064
-1.0085633,1.2548363,0.47658643,0.20168659,-0.5693434,-0.99322927,-2.7793896,-1.323478,-0.9803434,1.0451521,-0.33875105,-1.7893101,-1.8135626,-0.60159975,-2.4159045,-0.083233714,-1.8549001,-1.1138344,-1.2264405,-1.8375918
1.7351528,1.4449213,-2.1541433,-6.2620535,3.5151873,-5.855553,3.7860441,-5.5577145,0.050996162,-4.5418515,-1.8193073,-1.869729,-2.6144524,0.09664646,-4.249683,2.2678454,2.012771,-9.370306,-3.9397306,-5.8589187
-5.0444117,-1.3679323,-9.12126,-2.77545,-5.3095813,3.5446055,5.4436607,0.34398207,-7.6617775,2.8910165,-0.03781723,-3.9407551,-1.9434422,-1.6172426,-6.0388474,6.763626,1.7465105,-2.2068207,7.3271914,-4.427425
-1.0908605,1.223515,1.1252922,1.327727,-0.5393463,-0.44539744,-4.7052135,-1.118372,-0.9039502,-0.36744878,0.9721081,-1.8534429,-1.4914157,-0.918919,-2.4457731,0.65402526,-1.4515377,-1.0423536,-1.203385,-1.7924602
-1.1283529,1.3094622,1.4916121,-3.3427465,-2.780673,-0.51782197,-4.463469,-1.1960855,-0.8520399,-0.11422997,-0.82096845,-1.7735215,0.88868684,-0.7683111,-1.9185506,0.2921142,-2.259967,-1.0237392,-1.1388578,-1.9655486
-0.16736569,-0.60014164,-0.020810038,1.548973,-0.30396578,-1.5268512,-1.3869417,-1.9796154,-0.81351084,0.19190384,-0.9295773,-1.3533704,-1.9291625,0.454498,-2.1264706,-1.3627442,-1.214651,-1.1387677,-1.0132151,-2.008206
-1.0387377,0.4229309,1.645577,2.0599134,-0.085551895,0.46745753,-5.509811,-1.1954303,-1.1403002,-0.4260846,0.30348453,-1.6440511,-1.3204242,-1.2388846,-2.5500813,2.6858828,-1.6502991,-1.0899117,-1.2556543,-2.0159805
-0.28814054,4.3319864,-3.786854,0.29656294,-6.727306,-5.456568,-4.6308827,-7.3197727,-0.47325566,0.839304,-0.651078,-11.903213,3.8722842,11.566722,3.0921347,3.2031024,-10.35559,-5.479597,-4.1647573,-4.046214
0.68362117,0.20334142,0.97232157,-3.0596175,1.8869292,-5.3079767,-6.3011937,3.8878605,-1.6227385,-5.546883,-4.292489,-3.2850742,-3.5627048,-3.8203497,-5.3768673,9.208874,1.0794427,-5.7341895,-3.6892943,-3.8588064
-1.1490737,1.4105339,1.4770766,-2.1487749,0.8005572,-1.9544231,-4.0816603,-1.1112651,-1.2807891,-3.9432096,1.8328329,-1.7571381,0.22168343,-1.0010107,-2.504446,-4.6741505,-1.7023369,-1.0985801,-0.7849016,-1.6681961
6.148179,-1.1491513,-6.9028997,3.6701941,1.712991,-4.1382008,-0.23332018,1.9856106,-5.9928446,-4.353914,-6.7959228,7.507374,-3.6955101,-9.034044,-4.328138,-10.648664,-11.117756,-7.6131763,9.680424,-5.555333
-0.2115541,0.2553041,0.8889737,-0.59823954,-0.32690492,-1.6196775,-3.454174,-0.82355636,-0.86451715,-0.048335895,-0.9882722,-1.2156247,-1.0087203,-0.7855118,-1.0160115,-0.76614517,-1.0868685,-0.90306675,-0.89222234,-1.0115154
-1.0626127,1.4706954,1.2071807,-2.5659578,2.2814999,-0.40787014,-3.112261,-1.3658259,-0.8871649,-3.8674524,0.2072674,-1.6236907,-1.3542236,-1.0838417,-1.509007,-3.2706363,-1.5634233,-0.9708239,-0.968922,-1.5315043
1.422008,0.4718489,-5.2258196,2.1505487,-5.5594277,0.85360914,0.46692678,-2.3061318,-11.175485,9.404842,-4.7326326,-12.76109,2.0391304,-7.9766655,-6.784786,-7.2604394,0.050593205,-2.1956644,-5.8309407,7.786888