-0.3712669,-1.057765,-0.6673833,2.9548392,0.5527944,2.4445431,-3.453068,-1.3789009,-0.2368359,0.26549366,-1.2430826,-1.3426375,-0.23062302,-1.0088255,-0.9442179,0.4889161,-4.661934,-0.69961154,-1.0138342,-1.1915747
-0.42604035,0.48066598,1.1456306,-0.8759772,-2.6710901,1.1042885,-0.34293047,-1.2276576,-1.0643944,-0.37720352,-0.7548814,-1.4338193,-1.4825388,-0.93162966,-0.8635012,0.7209288,-1.3855826,-0.80209816,-0.8704307,-0.9369306
-3.690231,1.5725881,1.8938161,5.156511,6.7177043,5.4245286,1.7216893,-2.9171278,-6.281406,-10.678954,-9.069374,-1.2114499,3.9573295,-3.8118196,-8.238613,-7.301861,-7.875555,-9.345532,-10.366565,-10.703092
-0.01870322,1.2952652,-1.8765279,-1.2228304,-0.45475206,-1.3549708,-2.1495163,1.9262897,-3.5792897,-0.43073484,-0.45659536,-1.1420857,-1.2058752,-0.89234644,-1.0142041,-0.67128,-1.2274776,-0.97277945,-0.9418214,-1.7549092
-0.33209673,0.28719845,2.209146,0.1432474,-1.6695927,-3.8685281,-1.4453896,-1.1487973,-1.1946547,-0.52545893,-0.76153606,-2.262238,3.7331076,-2.1536171,3.4184985,-0.15858392,-1.3267181,-0.9575163,-0.89577323,-1.079496
-0.9262763,0.8335833,0.9127244,0.016638538,-0.4005261,-0.9362498,-0.26394165,-1.1377734,-1.0854346,-0.6074656,-0.95273834,-1.6761503,-1.0783541,-1.1706455,-1.2393751,1.0455425,-1.457429,-1.117471,-1.2176715,-1.4117059
-0.5411065,-0.96908724,7.8687263,-3.8588905,5.966339,-3.2141042,-0.036806505,2.6151898,-4.0894585,3.8413744,-1.0262047,-3.2994623,-4.1609864,-2.5183628,1.3104622,-2.2581615,-6.511655,3.634935,0.29391637,-5.525754
-0.63485044,0.7041613,1.4302051,0.82862216,2.1085408,-3.7282076,-2.1981654,-3.2845333,1.8045789,-1.8168634,-2.5712426,-2.134909,-0.2874308,-4.078589,5.142776,0.25455356,-3.997443,-3.0215478,2.2562103,1.8879274
0.23407292,1.6838293,-8.45825,-10.931438,2.8063586,-4.729801,-5.869881,-5.916273,-12.96274,-9.067328,-10.512198,-9.200087,-9.906871,-0.42949086,-7.3718915,1.1443305,-5.270252,3.0131917,2.5155888,5.1963863
-0.9387782,0.7459297,1.0921395,-2.7512724,2.2561831,-0.7376993,-0.2750335,-1.2148368,-0.8598793,-0.5440424,-1.0670412,-1.5943214,-1.0219536,-0.84437543,-1.2210777,2.4831436,-1.5278571,-1.1346908,-1.2046449,-1.5065814
2.7698011,-1.1704165,-3.113905,-9.924534,-8.552441,5.786381,-4.4128284,-5.528944,-8.388661,0.45582616,6.121976,-8.526833,-3.25549,-2.7322628,5.5039043,-6.816513,-6.460513,-4.4933453,-3.3084416,-1.760599
-0.8340974,0.89411443,0.76696545,-2.7923033,2.2991269,-0.72706383,-0.37481335,-1.137001,-1.1915196,-0.67181724,-1.096784,-1.65348,-0.89432734,-1.0628161,-1.257715,-0.5034025,-1.4690572,-1.1391617,-1.104453,-1.2843254
-0.8771997,0.88215667,0.803381,-2.128383,1.7458154,-0.46541062,-0.2745599,-1.1257548,-1.1534479,-0.55786806,-1.1194018,-1.696301,-1.1536756,-1.0306467,-1.2298577,-0.90749294,-1.5527394,-1.1188824,-1.1321368,-1.3240935
-0.32984036,0.6611108,0.93976855,-0.3150396,-0.65487045,-0.8598938,-0.5247255,-0.7485614,-0.81694025,-0.6075597,-0.897339,-1.171105,-1.1771603,-0.7780615,-0.24797817,-0.501076,-1.1483219,-0.80629635,-0.7880231,-0.96741414
-0.974022,1.0904237,-1.0777897,4.006242,-0.4790145,-4.731739,2.26974,-5.3468537,0.98029184,-1.5587745,0.4795885,-1.3164644,-3.0367224,6.090531,-4.19141,-1.1351478,-7.989562,-0.83339864,-1.6377172,-3.206064
0.025338458,0.37526277,0.12716138,-3.2069998,2.104222,-0.95437574,1.0995489,-1.1494484,-1.1373227,-0.69780046,-0.9146509,-1.3762156,-0.87535304,-0.7608233,-0.81588614,-1.1595159,-1.2697967,-0.9426194,-0.8311332,-1.4341697
-0.905532,0.8964157,0.81109005,-0.42223054,0.54597914,-0.6082005,-0.50011605,-1.1142759,-1.1640685,-0.61882645,-1.0963537,-1.7643564,-1.2462405,-1.11668,-1.3113866,0.7450196,-1.571213,-1.0733812,-1.1445919,-1.3543652
-1.2416216,1.8205707,5.9546127,-0.07471986,-8.860825,0.20663124,-6.423791,-5.935061,-4.995941,3.7181065,-5.7087307,-5.7745404,-7.4259977,-8.267972,-1.3666444,-1.5730166,6.9222,-6.5585427,3.3058147,1.0833002
-0.3467908,1.5135622,1.7304636,-5.9072204,-3.2402394,-0.5816758,1.0427324,-3.865267,-2.8807526,-0.80359083,-0.32455686,2.3411803,-3.8954885,-0.8135568,0.9629776,-0.31509644,-1.6390479,-0.96002156,-0.9392771,-1.5430801
-0.950023,0.90109026,0.63003427,1.7664297,-0.7162892,-0.6940986,-0.08262038,-1.2249578,-1.2444077,-0.8737977,-1.0168486,-1.6670423,-1.2347441,-1.2624091,-1.3975368,-1.1155617,-1.5756112,-1.129871,-1.0928532,-1.554524
0.6294525,-4.0231695,1.6162024,-7.0087495,-5.325705,-7.269889,-1.0793886,6.3236756,4.9304733,-0.06699556,2.893855,-8.632025,3.1128788,-5.9471035,-8.126681,1.5226421,-6.694084,-3.7899158,-6.411161,0.7816663
-0.8888341,0.8493861,0.9080404,-1.9770919,1.9862409,-0.68615854,-0.38980207,-1.4417176,-0.9895512,-0.6736299,-1.0868975,-1.601543,-1.4063728,-1.0884035,-1.0456877,-0.8036332,-1.5315738,-1.1270032,-1.107944,-1.257913
-0.90951645,0.857064,0.9842808,-2.6294916,2.4248629,-0.46051237,0.11207619,-1.2675467,-0.99394226,-0.5889108,-0.847382,-1.6538761,-1.1951138,-0.872377,-1.187464,-0.28378612,-1.4811563,-1.2102454,-1.1925571,-1.1980752
-0.82271695,0.8353617,0.9562687,0.09042978,-0.7006244,-0.68383133,-0.35441586,-1.0546786,-1.0628093,-0.78381056,-1.0881683,-1.5868646,-1.1777023,-1.0557483,-1.150887,-0.12353256,-1.4725163,-1.1075454,-1.1340379,-1.3372256
2.8149018,-1.4131467,-7.5282187,-2.9888866,-3.593172,-3.1731498,-2.4459205,-2.7964685,-2.2648005,-2.6702135,-7.012776,8.566029,4.1777525,-7.58028,3.1299555,-1.417952,3.8804634,3.8228703,-4.5175877,-7.78192
-0.27117518,0.8295357,0.7174532,-0.7967011,-0.29271084,-1.2378874,-0.2225807,-0.8711371,-0.87603754,-0.49886948,-0.91600907,-1.185273,-1.1199222,-0.86582714,-0.39522824,-0.75181645,-1.1180933,-0.8963077,-0.862299,-0.9498861
-0.94092494,0.9398904,0.78204113,-0.12575407,-0.9245478,-1.0471741,-0.10945215,-1.2540716,-1.2975881,-0.7612552,-0.9410272,-1.8077986,-1.5518683,-1.0256386,-1.5460333,0.5569847,-1.5850505,-1.190096,-1.3437895,-1.4310567
-1.4943289,3.1156206,-2.8980012,-4.392703,-6.471459,-5.4328046,5.7683806,-2.1681147,8.050523,4.744809,-1.2523587,-6.8798733,-3.6261938,-5.208476,-3.0472546,2.7822332,-1.2386605,-3.294762,-3.00557,-2.6733544
-0.8381198,0.8663311,0.8166227,-2.695992,2.4857602,-0.5700505,0.19923797,-1.102487,-1.0829012,-0.712848,-1.1194508,-1.6470594,-1.0404351,-1.0247546,-1.0289265,-0.8198874,-1.4457409,-1.1697876,-1.1853828,-1.0858952
-0.32397974,0.93326867,0.3756409,-0.4641843,-0.8291836,-0.83443815,0.21827903,-0.9695951,-0.99556196,-0.5961015,-0.67052734,-1.3786514,-1.2050968,-0.7721286,-0.80172193,-0.14541994,-1.0876216,-0.81578094,-0.73083586,-1.0828692
-0.23609327,0.7827756,0.71757835,-0.5889323,-0.47475994,-1.5559053,-0.5828618,-0.84174776,-0.95324445,-0.62636584,-0.6417001,-1.3531321,-0.7624987,-0.9844437,-0.1544497,-0.30106628,-1.1383827,-0.8227818,-0.88018745,-1.0257442
-0.9441406,0.560722,0.62802523,3.5806015,-1.6393316,-1.1282375,-5.468531,-4.5794587,-2.5604644,-2.0719733,4.182527,-3.8546705,-4.6143184,-6.4029546,2.7752142,1.7925808,-3.4650636,4.1398687,-5.3755198,2.8110173
-0.58487844,0.9044712,0.820732,-1.5111358,-0.33424377,-0.57998776,0.23358078,-1.0949038,-1.0700084,-0.77143216,-0.6635363,-1.5055131,-1.9334508,-1.2804465,1.3433346,-0.008884598,0.14293258,-0.90488166,-1.0015945,-1.0053843
-0.93651164,0.49513137,0.46944252,3.4824307,-0.1488839,-5.1044774,-3.8083408,5.398928,-5.34659,-0.46838623,-2.2487874,-1.402807,-3.4748251,-5.286994,1.1024077,-0.46438366,4.383296,-2.137162,-3.3973176,-5.219784
-0.88471985,0.8681633,0.8661698,0.54321665,-0.62945896,-0.46643284,-0.29886836,-1.1322149,-1.1069912,-0.65965223,-1.1164494,-1.7316169,-1.0572249,-0.99566376,-1.1454669,-0.5090683,-1.4920114,-1.0719898,-1.0994861,-1.3013563
-0.37321734,0.7648911,0.6460966,-0.735489,-0.89240754,-1.3223265,0.4268158,-0.9555466,-1.0500945,-0.6550908,-0.5402004,-1.3972421,-0.86255324,-0.4173756,-0.8098941,1.1335024,-1.1582708,-0.92888635,-0.9686166,-1.1473718
-0.92226,0.8594832,0.945492,0.15021394,-0.30550495,-0.6328505,-0.3739271,-1.2342567,-0.91482365,0.026442144,-1.0263425,-1.7249608,-1.2907553,-0.96911806,-1.2100008,-0.5633262,-1.6975645,-1.1332937,-1.2048056,-1.2559785
0.8695991,0.26541334,-2.650856,-1.3076537,3.9620993,-3.9240153,2.181102,-2.0996222,-0.3549532,-0.4663403,-2.2576032,-1.4692105,-1.04178,-1.0925981,-3.578526,1.5120599,-1.2224586,-3.6557753,-3.3196228,-2.8360903
-0.43485638,-0.527476,-3.5312824,-2.096579,-4.756958,3.3072343,6.131023,-0.839812,-6.330469,2.1505334,1.956891,-3.733643,-2.5040812,-4.0503902,-2.7215827,2.8899798,1.1767193,-3.0471032,5.983912,-2.6499434
-0.90865654,0.88423175,0.7674212,0.0046668984,-0.7129096,-0.75893235,-0.38390782,-1.0799305,-0.95053506,-0.75769985,-0.99046123,-1.7503407,-1.2048472,-1.147885,-1.208775,0.11145683,-1.4259365,-1.0605373,-1.1642419,-1.4501264
-0.93386185,0.85931486,0.92522174,0.55598664,-0.48841944,-0.8030304,-0.49523133,-1.1264617,-1.1116467,-0.6962427,-0.80290425,-1.7459805,-1.3875141,-1.0898283,-1.3098962,-0.29856884,-1.6267157,-1.1885426,-0.99111456,-1.2920344
-0.1715019,-0.39191863,0.17623115,1.7282455,-0.40649402,-0.8743983,-0.37604466,-0.8244524,-0.81642354,-0.3833568,-0.8092384,-1.3083133,-0.9198298,-0.87794733,-0.76290864,-1.0011477,-1.2469885,-0.9064527,-0.8798063,-1.0159444
-0.89281607,0.88113105,0.8011087,-0.3413381,-0.10117411,-0.7613343,-0.31639645,-1.110731,-1.1639742,-0.66665345,-0.9968322,-1.623186,-1.3925029,-1.201573,-1.1767328,0.689011,-1.6085017,-1.121719,-1.2084107,-1.5014867
-0.97865766,3.0034044,-2.6533494,0.5270446,-4.1110077,-2.8414555,-2.2494078,-6.50522,-1.0320587,0.5799287,-2.2883768,-7.6853623,2.6153133,9.173666,2.1761732,1.4044939,-8.661085,-5.7604184,-2.2161002,-6.8384886
-0.749177,0.6918373,0.186275,-2.4139864,3.2869067,-2.0736902,-2.406362,-0.0045687025,-2.1903198,-0.76470745,-1.420365,-1.9217118,-2.5845063,-0.94338614,-1.7696649,6.1609783,-1.9106624,-2.9834344,-2.2624824,-1.2953206
-0.9524953,0.8751421,0.95226866,-1.9452376,2.14429,-0.7876281,-0.3846369,-1.1914579,-1.2211736,-0.7554987,-0.8910411,-1.6865972,-1.3932618,-1.21594,-1.422071,-1.3073541,-1.6968141,-1.1199381,-1.0664728,-1.3403836
2.3955247,-1.6784513,-4.983256,1.8445396,0.51015705,-2.9805627,1.8323332,0.5858278,-3.0511906,-4.342307,-4.7759376,2.6714454,-2.5628648,-5.082398,-4.281354,-4.3089323,-7.936402,-4.423093,6.04793,-4.1765394
-0.20521086,0.671351,0.7085057,-0.17151912,-0.3544612,-1.0564166,-0.53216386,-0.8035421,-0.8585223,-0.51076525,-0.78376305,-1.2158972,-0.87737834,-0.79404104,-0.71999305,-0.5551313,-1.0884435,-0.89340085,-0.91204834,-0.92906165
-0.9189501,0.88295496,0.8320692,0.32488364,-0.35040253,-0.5918991,-0.48062563,-1.2773663,-0.8814491,-0.70626724,-1.0846823,-1.5849992,-1.3335031,-1.1179572,-1.1478999,-0.41393375,-1.5374905,-1.0243093,-1.0864747,-1.2761958
0.8596914,-0.013501227,-4.8632245,2.0217643,-3.7406683,0.1847084,2.4049368,-4.134184,-7.1185155,1.9534453,-2.5583851,-9.433637,1.4054345,-5.6332126,-3.7872522,-3.5434334,0.5333863,-1.7777418,-5.7353325,4.790752