-0.33504403,0.9906409,-0.8561887,0.5976899,-0.789175,-0.011363715,-1.4913732,-1.2776952,-0.6520173,0.030540844,-1.0606155,-1.6228868,-0.63722014,-0.8235055,-0.89168096,0.681104,-1.5709018,-0.69756776,-0.9986315,-1.1248997
-0.41913974,0.81987596,0.06635932,-1.2311208,-2.612038,1.964625,0.20152052,-1.2318172,-1.0585504,-0.3903766,-0.7520673,-1.4354126,-1.4351085,-0.9212912,-0.86347383,0.75266284,-1.3555903,-0.8020597,-0.8693191,-0.93445903
-3.2478504,1.5876045,1.4822335,4.7903337,6.602512,5.4479876,1.6087226,-1.3745317,-5.9798203,-10.066418,-8.853231,-0.11506956,2.8813343,-3.2130096,-8.132937,-6.617718,-6.953154,-9.267581,-10.1642065,-8.847533
-0.012487676,0.7867374,-1.546937,-1.1681088,-0.5467198,0.5381063,-1.3180526,-0.09643683,-1.1008981,-0.60143995,-0.4658213,-1.1492056,-0.9666039,-0.88378805,-1.0083475,-0.5790512,-1.060677,-0.9603598,-0.82377964,-1.5922207
-0.3189841,0.73138833,1.6858441,-2.0701787,-1.3813076,-2.4466696,-0.1718323,-1.0562975,-1.1123213,-0.52510077,-0.75002366,-1.8648969,0.2814645,-1.9776417,3.1335356,-0.121922076,-1.2929215,-0.956321,-0.9059309,-1.0759531
-0.9258692,0.81692976,0.9580897,0.117712826,-0.5840876,-0.61413574,-0.16982804,-1.0986216,-1.0805687,-0.6074287,-0.9520822,-1.6717131,-1.0831412,-1.1518068,-1.2402053,1.0921087,-1.4461278,-1.1173875,-1.2163646,-1.4073185
-0.5499339,-0.770796,6.435009,-2.2101676,5.2791324,-0.7998018,-0.9661514,3.2033536,-3.8073907,3.3027055,-0.9320341,-3.03107,-3.7891889,-2.5110536,1.3191661,-2.0549526,-6.2177625,3.113568,0.10379281,-5.20005
-0.61286664,0.74144125,-0.40030614,1.487196,3.0685558,-1.864106,-1.0888332,-2.8612752,1.4708457,-1.4562964,-2.4085968,-2.286733,-3.1257746,-3.7956607,4.56718,-0.06432324,-2.9514904,-2.8442783,1.0178518,1.7121767
0.18058653,0.6017154,-7.4493732,-9.826919,1.7289971,-5.698167,-4.9270377,-5.7731013,-12.760886,-8.859652,-10.463226,-9.118311,-8.4927635,-0.4860094,-7.112305,1.209657,-5.0669184,2.9691093,2.4337232,5.295519
-0.938181,0.74033654,1.1544698,-0.06321948,-0.6474618,-0.64217204,0.09423794,-1.090683,-0.8574418,-0.54660416,-1.0662606,-1.5845677,-1.0448565,-0.8282208,-1.2222667,2.4202235,-1.5199473,-1.133531,-1.2024859,-1.475782
2.6138885,-0.83365226,-4.4059763,-9.554301,-7.960209,5.25435,-2.9963276,-5.146263,-8.240693,0.27031177,6.042926,-7.9978685,-3.271228,-2.8095214,5.527883,-6.6312227,-6.22159,-3.9823654,-3.171849,-1.7636024
-0.8340138,0.8737795,0.9137813,-0.061534744,-0.62240225,-0.64368236,-0.31345358,-1.0780368,-1.1889334,-0.67102563,-1.0969857,-1.6465305,-0.9078523,-1.0228697,-1.2572875,-0.4584691,-1.467733,-1.138201,-1.1031344,-1.2820215
-0.87663454,0.8782481,0.8190719,-0.26611203,-0.583578,-0.42022347,-0.16036142,-1.0862546,-1.1544647,-0.5579414,-1.1129932,-1.6852747,-1.1578617,-1.0173982,-1.2293591,-0.84646773,-1.5490762,-1.117963,-1.1307154,-1.320563
-0.322352,0.73017454,0.95866895,-1.8170115,-0.6457033,-0.7079878,-0.2976411,-0.74964005,-0.8155897,-0.6071218,-0.8972218,-1.1734402,-1.1748457,-0.77370334,-0.2488914,-0.48571613,-1.14642,-0.8061465,-0.7875907,-0.9664929
-0.9552492,1.0257255,-0.8157155,4.2034836,-2.5254416,-3.4608195,3.0802534,-4.8196373,1.4163193,-1.4375031,0.38128778,-1.5628191,-4.400508,1.5271515,-3.638204,-0.68740994,-4.1452513,-0.82882595,-1.525517,-2.819388
0.026116703,0.38055712,0.14717698,-0.60122204,-0.6526654,-0.77003276,0.633729,-0.905183,-1.1118861,-0.69021523,-0.91398877,-1.3561275,-0.7644324,-0.754828,-0.81711227,-1.1435554,-1.2678984,-0.93968064,-0.8299584,-1.4262396
-0.9047818,0.88605815,0.8433683,0.281716,-0.65408397,-0.52118176,-0.22540987,-1.0835965,-1.1715374,-0.6177226,-1.0880402,-1.755875,-1.2583328,-1.095851,-1.311986,0.81748575,-1.562141,-1.0731506,-1.1430849,-1.349725
-1.1731566,1.301007,5.035039,0.64921945,-7.598168,0.548486,-5.577418,-5.905652,-4.6785836,3.6451259,-5.4266305,-6.2097073,-6.8791533,-6.412812,-1.3603375,-1.3825433,7.207743,-6.4197235,3.3751523,1.7869905
-0.3172159,1.0519006,1.5058938,-4.5317583,-2.7777417,1.8424385,0.9296505,-3.2824392,-2.373788,-0.7069169,-0.3339479,-1.3431656,-1.7612637,0.20810993,0.7751766,-0.082298405,-1.4969686,-0.9544311,-0.9154225,-1.4310097
-0.9464856,0.9308617,0.64926195,-0.2295287,-0.6842117,-0.30406868,0.56475437,-1.178926,-1.2474633,-0.8712965,-1.0042493,-1.663337,-1.2456583,-1.2215078,-1.3978063,-0.9642374,-1.56117,-1.1297501,-1.0909836,-1.5476551
0.5959275,-3.9327414,0.4998677,-6.3510537,-4.7300925,-5.651232,-1.3080181,5.4576874,5.4897375,-0.28306302,3.3340962,-8.136338,2.479633,-4.7432413,-8.045224,1.6871461,-6.4314184,-3.839238,-6.0374584,0.62191695
-0.88860786,0.84436846,0.9785096,0.36013395,-0.57442665,-0.62706286,-0.26338294,-1.1978083,-0.98714083,-0.67238927,-1.0878122,-1.5839856,-1.4715364,-1.0739491,-1.0463556,-0.7359398,-1.5263125,-1.1265045,-1.1068532,-1.2555257
-0.9091466,0.8485003,1.0040035,-0.06824514,-0.43163636,-0.24318914,0.25589344,-0.9660726,-0.99049973,-0.58823425,-0.8481939,-1.6271499,-1.1665181,-0.8594541,-1.1878812,-0.2195119,-1.4757162,-1.2102144,-1.1915088,-1.1954173
-0.8226174,0.86339754,0.7901106,-0.07848365,-0.6544482,-0.63955766,-0.32068318,-1.0290159,-1.0595641,-0.78302366,-1.0881691,-1.583864,-1.1806794,-1.0270857,-1.1505398,-0.10206214,-1.4693244,-1.1062675,-1.1324496,-1.3340709
2.2988806,-1.9475502,-4.797231,-3.6160104,-5.041486,-2.8479998,-0.007304125,-2.8087876,-1.5207387,-2.4861052,-6.918479,7.1886377,2.3913102,-7.269084,3.1353488,-1.2902607,4.7337484,3.5416865,-4.010203,-7.199941
-0.2641113,0.75100195,0.7842563,-0.8308024,-0.24820429,-0.6441499,0.0057939985,-0.8673849,-0.87242824,-0.49934444,-0.9138241,-1.1854665,-1.1085595,-0.8408266,-0.397231,-0.7310185,-1.1131121,-0.8962187,-0.86163133,-0.9482369
-0.9385563,0.9017317,0.81224,-0.24103811,-0.7215564,-0.37249804,0.7300405,-1.2116797,-1.2900631,-0.76250637,-0.93609524,-1.8200456,-1.5395979,-0.9555485,-1.5459044,0.6830948,-1.5321281,-1.1902877,-1.3400013,-1.4171585
-1.1350658,2.4590478,-1.62771,-4.612787,-4.8019495,-4.8913565,5.2939935,-1.3096857,7.305798,4.395928,-1.0999835,-6.7169876,-3.4044824,-4.8002324,-2.9402187,2.148824,-0.6793629,-3.1985164,-2.9286597,-2.568538
-0.83798623,0.851983,0.9406926,-0.024348037,-0.4221808,-0.5233607,0.2863455,-1.0409174,-1.0799792,-0.71158546,-1.1193492,-1.6388764,-1.0521436,-1.004209,-1.0291256,-0.7650706,-1.4442289,-1.1690989,-1.1842222,-1.0839059
-0.3125819,0.8477144,0.3935985,-1.1633351,-0.76836336,0.13402086,0.8052636,-0.9679603,-0.99433976,-0.59736145,-0.66663516,-1.3786156,-1.1790549,-0.75839347,-0.8002595,-0.09105114,-1.0776098,-0.81560653,-0.7300524,-1.0813277
-0.22557421,0.65566653,0.87546587,-0.64110905,-0.42616147,-0.52246654,-0.4389991,-0.83313906,-0.9580254,-0.625803,-0.63956374,-1.3500457,-0.7707672,-0.9696232,-0.1562446,-0.28482857,-1.1364228,-0.82260036,-0.87958294,-1.0242773
-0.93184584,0.8207256,0.25607383,2.4084349,-1.8413405,-1.0036119,-3.5059488,-4.1905956,-2.417223,-0.6728076,3.0459785,-3.7059946,-4.858862,-6.0442166,2.909135,1.6552224,-1.7342522,3.5451627,-4.7331076,2.3438249
-0.5815336,0.81315416,0.8346781,-1.6862942,-0.25425768,0.6577234,0.6508957,-1.1053002,-1.0546527,-0.77013427,-0.65681297,-1.4885452,-1.8788534,-1.2421687,1.2784435,0.046218097,0.15352958,-0.90471673,-1.0005023,-1.002814
-0.86028785,0.80824,0.2100835,2.102735,-1.1372948,-4.045975,-4.1653376,5.573529,-3.6904714,0.16780533,-1.8616445,-0.3406349,-0.4374734,-4.6948676,0.99244744,-0.2270923,4.160902,-1.946227,-2.8813207,-4.223393
-0.88432384,0.8540113,0.947731,0.37881705,-0.5914295,-0.4122206,-0.24126151,-1.1013497,-1.1023046,-0.6586711,-1.1162895,-1.7231461,-1.0647036,-0.97490484,-1.1458869,-0.43535662,-1.4842362,-1.0717297,-1.0982473,-1.2976544
-0.36909363,0.68847585,0.697636,-0.8546362,-0.84464705,-0.6582544,0.8572857,-0.94377375,-1.0453448,-0.65353113,-0.5410108,-1.3896692,-0.8388464,-0.40055585,-0.8097232,1.159334,-1.1503568,-0.9287214,-0.9671719,-1.1448463
-0.92147386,0.8458457,0.9825733,-0.077428244,-0.38974962,-0.27941352,-0.097368285,-1.1692071,-0.90911627,0.0034434742,-1.022768,-1.7107733,-1.2823956,-0.9521054,-1.2102796,-0.47740823,-1.6723546,-1.1333939,-1.2034715,-1.2503346
0.68960404,0.18284248,-2.0830865,-1.4971597,3.0997987,-1.6796471,2.0412552,-1.888993,-0.4359218,-0.58054394,-2.0660307,-1.3924795,-1.2294617,-1.0631208,-2.2420857,1.4628419,-1.5065743,-3.1524498,-3.1685028,-2.623074
-0.27832085,-0.3757028,-2.7056937,-1.9041737,-2.4022417,2.6661415,3.7220337,0.13070361,-4.726838,1.8718544,1.6666521,-6.1573296,-0.3476701,-3.5548525,-2.29922,2.331332,3.4560947,-2.9817402,5.7900968,-2.4348328
-0.907778,0.87335044,0.78546023,0.01801071,-0.7503333,-0.5506344,-0.32011998,-1.047957,-0.94666547,-0.75621665,-0.9897317,-1.7475306,-1.2101489,-1.1304035,-1.2092091,0.18922254,-1.4186375,-1.0603169,-1.1629727,-1.445856
-0.932869,0.8670614,0.82773983,0.61035585,-0.652763,-0.6191925,-0.2490499,-1.1000663,-1.1071155,-0.6942384,-0.80357426,-1.7461898,-1.3897574,-1.038048,-1.3104,-0.20879145,-1.6106199,-1.1883538,-0.99001473,-1.287071
-0.16556226,0.7134794,0.21573073,-0.9588532,-0.4024789,-0.5505666,-0.03814122,-0.823789,-0.8142506,-0.39102194,-0.80887026,-1.3089141,-0.9173145,-0.8686554,-0.76328486,-0.9838889,-1.245147,-0.90624005,-0.879294,-1.0145099
-0.8922055,0.8745312,0.81045085,-0.084483445,-0.6178967,-0.5907821,-0.23954564,-1.0617772,-1.1600734,-0.66659653,-0.99494284,-1.6216148,-1.3886513,-1.1828144,-1.1775742,0.74384123,-1.5998214,-1.1212171,-1.2068577,-1.4964925
-0.873196,2.9463801,-2.3469913,0.2165425,-2.8241765,-4.0962377,-5.741838,-5.9366274,-0.23450531,0.25841427,-2.10843,-6.0965867,3.5690134,8.856681,2.0449853,1.0035828,-7.0318565,-5.6589437,-2.2278733,-6.345238
-0.7627608,0.80065894,0.55752593,0.34773466,-1.2159269,-1.0116827,-0.26680136,-0.2158555,-2.1535232,-0.78328204,-1.4163821,-1.8593336,-2.0146065,-0.8704485,-1.7470587,5.287964,-1.8380523,-2.6872838,-2.1867034,-1.0563595
-0.95103717,0.85605234,0.98713094,0.25952616,-0.37838677,-0.65403336,0.1122058,-1.1455323,-1.2170318,-0.75322187,-0.88711095,-1.6789134,-1.4129276,-1.1869379,-1.4220848,-1.1801541,-1.6848034,-1.1198057,-1.0652667,-1.3353387
1.9241575,-0.9711243,-4.3383784,0.5867681,1.1701894,-2.4117746,1.3248745,0.27111235,-2.5363293,-4.115759,-4.7630963,1.1153988,-2.121599,-4.915604,-4.3204846,-4.143915,-5.637914,-4.033569,6.08172,-3.7897043
-0.20043273,0.634044,0.8149156,-0.5791144,-0.31354243,-0.6542684,-0.37972596,-0.79700625,-0.8559273,-0.51105005,-0.78364325,-1.2136371,-0.8796845,-0.78177637,-0.72082496,-0.5435999,-1.0872447,-0.8931263,-0.9115868,-0.9275857
-0.9184038,0.8631795,0.9251645,0.21019354,-0.44516516,-0.3541671,-0.41266385,-1.2238063,-0.877358,-0.70514876,-1.0851032,-1.5774084,-1.3332022,-1.0872316,-1.1483871,-0.336796,-1.5259187,-1.0242685,-1.0854158,-1.2724979
0.8439903,-0.9757958,-4.177089,2.8072383,-2.2935963,1.16489,1.6635579,-3.220309,-6.3083143,1.2214011,-2.363794,-8.653721,0.8823785,-4.3260384,-3.719969,-3.359663,0.36071813,-1.6018558,-5.631466,5.204426