-0.35111094,0.9775875,-1.0638748,0.04181277,-0.6661432,-0.0018587024,-1.1205211,-1.2360839,-0.9642908,-0.49655935,-0.7717849,-1.6017153,0.026835669,-0.77541596,-0.68966633,1.1374223,-1.2506183,-0.7667093,-0.9360935,-1.1071473
-0.43435,0.870917,-0.021555101,-1.0587687,-0.3989253,0.0055371057,0.17144634,-1.042106,-1.037189,-0.41428033,-0.744272,-1.4303449,-1.3455112,-0.89796877,-0.83647794,0.8840636,-1.2919726,-0.79967785,-0.857394,-0.9285543
-2.6094966,1.5239028,1.9296492,5.532339,6.1092515,4.0584135,1.6274688,-1.4940729,-6.975383,-8.301202,-8.462546,-0.3864229,2.3352776,-3.9764655,-7.7554555,-5.5765767,-6.537028,-9.160748,-9.849475,-8.248067
-0.038207006,0.7262935,-0.7399319,-1.2381873,-0.5275976,-0.24552797,-0.79916304,-0.72675765,-0.9381157,-0.536695,-0.4571131,-1.142114,-0.92522794,-0.8779255,-0.9436818,-0.07399236,-1.0242141,-0.91568065,-0.7725974,-1.4495137
-0.3730853,0.6956853,0.84805197,-1.3764781,-0.5721638,-0.77728486,0.35336155,-1.0239388,-1.0796423,-0.50951487,-0.735569,-1.5334193,-0.3943286,-1.6607009,3.1804552,0.058673315,-1.2314129,-0.9617419,-0.8844096,-1.0718529
-0.92455053,0.81186086,0.97688025,0.10298126,-0.55808014,-0.6553749,-0.40816766,-1.0315634,-1.157373,-0.59909886,-0.93873334,-1.6834888,-1.0726975,-1.1317576,-1.2363387,1.2779534,-1.4362559,-1.1155517,-1.2096982,-1.399713
-0.55503535,0.11358649,4.165081,-1.360418,3.413374,-0.73277396,0.15910067,1.7797503,-3.897819,3.37217,-1.3945277,-2.6997476,-2.3681662,-1.191355,0.8316852,-2.135326,-4.298391,2.5782948,-0.7679322,-3.938099
-0.58110654,0.7923492,0.023177765,-0.57419574,1.6928331,-0.703777,0.20188348,-1.6012719,-0.7465814,-0.9631389,-1.8967482,-1.7731555,-1.5749646,-3.0045047,4.2319756,0.8663907,-1.3039079,-1.029028,-0.87801784,-0.9788573
0.1391888,0.058772992,-5.692751,-7.9903893,0.3398651,-5.0278964,-7.767932,-4.727644,-12.1845665,-8.514505,-10.040286,-8.890299,-7.2712936,-0.8846996,-6.044969,1.8336852,-4.273753,2.7104142,2.619667,4.4797444
-0.93746424,0.7990085,0.74153304,0.028549878,-0.6372261,-0.6998374,0.12118485,-0.88720465,-1.1393738,-0.5515127,-1.0455382,-1.6089113,-1.0365804,-0.806181,-1.2199864,2.542277,-1.5052524,-1.1192914,-1.1922551,-1.4482048
2.3473768,-0.80537856,-3.4847841,-8.691819,-7.013261,4.265274,-3.9289687,-4.4073925,-7.858797,0.079174176,5.2497506,-7.739937,-2.4957883,-2.7940397,5.9109693,-6.267901,-5.455899,-3.905353,-3.1257849,-1.444275
-0.8340513,0.87132156,0.931528,-0.024746139,-0.61860305,-0.6963584,-0.53555036,-1.0115622,-1.2870315,-0.66928965,-1.089116,-1.6457348,-0.909177,-1.0162188,-1.2493047,-0.30839223,-1.4666815,-1.1340019,-1.0971549,-1.2794207
-0.8758767,0.88564956,0.7597205,-0.20208873,-0.55756813,-0.4994867,-0.28951788,-1.0902649,-1.1353418,-0.55864656,-1.103828,-1.683252,-1.1537038,-1.0099975,-1.2133198,-0.65956026,-1.547011,-1.1145769,-1.1237937,-1.3179774
-0.33991188,0.87796396,0.095003106,-0.6143598,-0.64712447,-0.7361974,-0.12468135,-0.6706273,-0.9505653,-0.6027941,-0.8856809,-1.1692202,-1.1488403,-0.77117115,-0.23646896,-0.43776968,-1.1484368,-0.8080419,-0.78109133,-0.9630559
-0.93838793,0.928185,0.25791034,1.7435443,-1.1630738,-0.6011013,1.6471382,-1.9548609,-1.3987539,-0.90612125,-0.7034144,-1.9057906,-1.7119379,-0.8555978,-1.7413944,0.5111779,-1.501488,-1.1487273,-1.2407515,-1.7404449
-0.024770817,0.38062415,0.24170487,-0.37615043,-0.61110896,-0.70962834,0.9225388,-0.8412288,-1.1657237,-0.66054153,-0.8999759,-1.3458172,-0.74492866,-0.758854,-0.81529826,-0.94961166,-1.2369925,-0.9399077,-0.81914437,-1.4011805
-0.9031372,0.8957134,0.7768635,0.29640687,-0.65039337,-0.584435,-0.49125478,-1.0745847,-1.1521325,-0.6169483,-1.0705577,-1.7562608,-1.2443011,-1.0740485,-1.3031307,1.0027074,-1.5514194,-1.0728544,-1.136205,-1.3429822
-1.1018199,0.8427463,4.717746,0.12472836,-5.4343824,-1.1514482,-4.543069,-3.5355244,-4.3328085,3.3533235,-4.880987,-5.3561797,-5.3976583,-4.27321,-1.1083895,-1.4466182,6.9432225,-4.824926,3.570453,0.4121624
-0.35343236,0.78182495,0.9518269,-2.2803526,-1.0464512,-0.36866796,1.931828,-1.3624289,-1.2186965,-0.48991698,-0.5361523,-1.5420054,-1.4703649,-0.7901463,0.8386283,0.440766,-1.2076038,-1.0092133,-0.82118946,-1.4158978
-0.94457585,0.9209194,0.64937925,-0.1991775,-0.70602727,-0.51780677,0.628011,-1.148904,-1.213489,-0.8329027,-0.9818667,-1.6554588,-1.2273269,-1.2008767,-1.3811017,-0.46772265,-1.6290358,-1.1379174,-1.067047,-1.537468
0.68100804,-3.533194,-0.21885616,-5.3181944,-3.0152955,-5.4674516,-1.3262105,4.998988,4.823547,0.16141346,3.326927,-6.9008145,1.3597579,-4.024758,-7.73165,2.1900966,-4.5334797,-5.5328374,-5.010122,0.12064276
-0.8884438,0.84277093,1.0074072,0.30395946,-0.5707651,-0.66681206,-0.54264736,-1.000809,-1.2767506,-0.6684346,-1.0754648,-1.5829946,-1.4572339,-1.0662295,-1.0354488,-0.64633113,-1.521033,-1.1241437,-1.1007869,-1.2538825
-0.90654373,0.84639907,1.0289394,-0.009148084,-0.39236012,-0.33527124,-0.36268753,-0.8145556,-1.1923708,-0.5746504,-0.831681,-1.6219833,-1.1408428,-0.85437804,-1.1802326,-0.031877495,-1.4644463,-1.2095925,-1.1847445,-1.1917195
-0.82265395,0.86126274,0.7907031,-0.054685038,-0.64739704,-0.6904082,-0.43427593,-0.9337675,-1.2088295,-0.7803214,-1.0789988,-1.5837176,-1.1767104,-1.0227917,-1.1441733,0.12319909,-1.4685594,-1.102417,-1.1266822,-1.3300923
1.5929785,-1.5581795,-3.9546046,-1.1021498,-4.155212,-2.3352287,-0.084973395,-1.4351102,-1.1405905,-2.241991,-6.552861,5.3558755,1.1435953,-6.29304,2.1225386,-0.23329239,3.3300807,3.4604542,-3.2613366,-6.181846
-0.29087606,0.7460079,0.9945753,-0.82279027,-0.26182848,-0.6738162,0.105976574,-0.83918864,-0.90499395,-0.4895693,-0.9051454,-1.1799115,-1.0920568,-0.836405,-0.39165163,-0.69736975,-1.1362536,-0.89920384,-0.8516295,-0.9451067
-0.9365424,0.9138935,0.680439,-0.18828711,-0.7376092,-0.5966096,0.80192226,-1.0837482,-1.3472984,-0.709471,-0.9028683,-1.8181691,-1.4973669,-0.9850527,-1.5168595,1.084211,-1.6128038,-1.1960057,-1.3097715,-1.3901739
-0.82359415,1.9650433,-0.9310097,-3.0254078,-4.248969,-3.5539901,4.8561263,-2.4533393,4.644011,3.9589164,-0.5386645,-6.420226,-2.159379,-3.7204826,-2.7000954,1.6356908,-1.5817285,-2.5456908,-2.5755453,-2.5764492
-0.83790314,0.85604864,0.9651795,0.0040311185,-0.42169246,-0.5714578,-0.41052037,-0.9793499,-1.1701636,-0.70776457,-1.1106627,-1.6379973,-1.0485667,-0.9978019,-1.021347,-0.6329178,-1.4429384,-1.1649541,-1.1780983,-1.0834028
-0.32645902,0.8900827,0.36905202,-1.2717986,-0.75480837,-0.3594108,0.6844132,-0.8815509,-0.975176,-0.5787735,-0.6616496,-1.3760544,-1.1013843,-0.7648067,-0.7883901,0.13619152,-1.120925,-0.8250778,-0.7118079,-1.0777842
-0.23202102,0.6119265,1.1275744,-0.64240956,-0.41910607,-0.55585384,-0.3713879,-0.83088887,-0.9515292,-0.62404966,-0.6366886,-1.3482581,-0.7640077,-0.9641861,-0.14981861,-0.10844257,-1.1362532,-0.8242211,-0.8753535,-1.0207711
-0.84236073,0.73969734,0.6487851,1.5763522,-2.1716096,-1.4029007,-2.8692563,-1.8058599,-0.8480049,-0.8799135,-0.38121736,-2.4766932,-2.1760283,-4.4806366,-0.15251735,2.221744,-2.0167377,1.5747348,-3.6627557,1.3344826
-0.5797568,0.85109115,0.82317173,-1.7308797,-0.24295244,-0.5379917,0.9186281,-0.9948184,-1.0033407,-0.6571639,-0.6445676,-1.6050442,-0.9729491,-1.2177905,1.3524221,0.1661636,-1.1618038,-0.9322962,-0.9488158,-0.9971809
-0.8167812,0.8274796,0.6589308,1.8495969,-1.6701825,-1.4865853,-1.2892101,3.9698803,-3.9506578,0.5058512,-1.3932984,-2.1117575,-2.2539873,-2.8866007,0.31755757,-0.5996147,0.865334,-2.4125185,0.46212357,-3.3026702
-0.88399595,0.84718114,0.986802,0.36485872,-0.5908844,-0.45861813,-0.3451327,-1.0212923,-1.203261,-0.65512604,-1.1057458,-1.7193891,-1.0550791,-0.9654002,-1.1397909,-0.3096307,-1.4778944,-1.0701541,-1.0922062,-1.2949896
-0.4011092,0.6896734,0.86091864,-0.7769873,-0.82754993,-0.6682721,0.8784847,-0.89928836,-1.0591829,-0.6390962,-0.53984356,-1.3888568,-0.8073957,-0.44241926,-0.8043494,1.2684915,-1.1641474,-0.92023,-0.9509484,-1.1387343
-0.92036206,0.84109354,0.99761444,-0.021933557,-0.38630462,-0.47024179,-0.19491145,-0.9609416,-1.172929,-0.100893356,-0.97460246,-1.701304,-1.2427408,-0.94899136,-1.2012645,-0.22713892,-1.6381301,-1.1337581,-1.1965573,-1.2425352
0.14700064,0.38342714,-1.5051683,-0.5654584,-0.05739391,-0.76017994,1.4633948,-1.263419,-0.99010307,-0.460704,-0.802015,-1.3566432,-1.0465308,-1.111342,-0.9453423,2.6748667,-1.1795952,-2.3887806,-0.8992094,-2.201446
-0.29878348,0.14813061,-0.7009962,1.2011229,0.6198099,0.63529843,2.6825235,-0.21185571,-3.2626402,3.28576,-0.7193955,-5.6570435,-1.3373975,-0.6688106,-1.680079,2.0982578,0.23833904,-2.873833,0.7481527,-1.3942828
-0.9068628,0.87538224,0.7546958,0.051358674,-0.7342583,-0.62187403,-0.37899497,-0.88916683,-1.1825571,-0.7512032,-0.9723166,-1.7450414,-1.2022363,-1.1158559,-1.1891153,0.35963693,-1.4134552,-1.0604304,-1.1570219,-1.4403692
-0.9317042,0.85880154,0.86058384,0.55928,-0.6831851,-0.6574821,-0.3326617,-0.991528,-1.2431134,-0.6888218,-0.7864998,-1.7385732,-1.3598577,-1.0205672,-1.2997842,-0.015081883,-1.598114,-1.1877702,-0.9845547,-1.2824132
-0.19029237,0.774725,0.0104674315,-0.7432554,-0.4149948,-0.6033621,0.09087349,-0.7653436,-0.90315926,-0.3972368,-0.8013005,-1.3043624,-0.9025046,-0.8625547,-0.75824285,-0.9546343,-1.2502366,-0.9069633,-0.87334055,-1.0088623
-0.8914097,0.87779975,0.76710874,-0.04257427,-0.60312426,-0.65723234,-0.29955515,-1.0285875,-1.1981622,-0.6650189,-0.9820836,-1.6280568,-1.3804642,-1.1674235,-1.1566613,0.965539,-1.5936226,-1.1206723,-1.1995606,-1.486637
-0.6578549,1.5521353,-0.70297724,0.6655957,-3.0941055,-2.4045577,-3.8076537,-5.1218853,0.041533954,-0.4013271,-1.9005506,-4.173558,3.208486,6.0291886,2.583257,0.016802527,-4.069069,-5.0094843,-1.3993099,-4.4316645
-0.79035884,0.8515651,0.61766046,-0.02690401,-1.1959743,-0.6355988,-0.11081654,-0.7734862,-1.9862353,-0.87871814,-1.1411824,-1.7663038,-1.6816472,-0.839124,-1.6053665,2.6737792,-1.7874731,-2.164631,-1.487673,0.17886733
-0.94995993,0.8796992,0.8091876,0.42557257,-0.48882142,-0.70445,0.053014763,-1.1010075,-1.2183542,-0.7447595,-0.8685639,-1.6674902,-1.3767829,-1.1657578,-1.4037886,-0.8777188,-1.6673744,-1.1205903,-1.0584489,-1.3281277
1.0028033,-0.46380603,-1.4953038,-0.87290263,-0.24746421,-1.614229,1.3251045,-1.034164,-1.846291,-3.3293514,-3.3656256,-0.6755553,-0.1898973,-2.0613341,-2.3771162,-3.7950444,-3.3175888,-3.28315,3.4578772,-2.1896951
-0.21202908,0.6261253,0.9415196,-0.5519409,-0.30542976,-0.67678434,-0.32329577,-0.7481808,-0.92596036,-0.5115485,-0.777724,-1.2087557,-0.8702658,-0.77967286,-0.7205161,-0.52485335,-1.0872943,-0.8930757,-0.90897715,-0.92326146
-0.9176297,0.85388976,0.97028875,0.2258441,-0.4358489,-0.40758,-0.49677515,-0.99224204,-1.211289,-0.6989025,-1.0687218,-1.5752931,-1.3129982,-1.0741497,-1.1406584,-0.23986247,-1.5173585,-1.0240628,-1.0791862,-1.2693374
0.64046484,-0.762134,-1.8300556,1.933043,-2.2075238,-0.5927124,1.1204818,-1.538369,-5.8840647,0.5957091,-2.0452228,-5.719536,0.70403296,-2.4100068,-2.2939863,-2.6671658,0.39129022,-0.897652,-3.9141784,3.3775074