-0.5671035,0.8366027,-2.350674,2.6288865,-5.7473516,3.406351,-3.2442932,-1.5398067,3.044915,4.7259703,-5.6040063,-1.2607151,-2.1667843,-4.7076535,-3.3731096,0.33147296,-6.430213,-0.937743,-1.1059532,1.2711341
-0.42225134,-0.7994857,-0.23732302,-1.8794297,-4.867035,6.6493096,-1.7216917,-1.4285133,-1.0504401,1.8731083,-1.9712808,-1.5840795,0.4235392,-0.9620093,-2.1207993,0.5383071,-1.5713582,-0.87669444,-0.86856985,-2.2946815
-5.801846,0.8527453,1.9295322,6.33046,9.478585,4.8253603,2.7721226,-3.8854039,-7.950692,-22.606882,-13.101238,0.7554686,4.041962,-8.366797,-15.61887,-10.538705,-7.3098583,-15.557151,-17.183979,-10.538507
-2.8833108,1.6193038,-4.67287,-1.1177474,0.6753994,3.2023845,-0.7376668,1.2879883,-3.7127097,1.6712022,-3.9285164,-0.45827577,-2.3836012,-3.3684566,-6.4740906,-2.6228998,-1.6246635,4.5536113,3.9513276,-3.2516515
-1.3281912,1.1588452,4.307041,-2.5814965,-2.3170369,-6.097875,-2.6835556,-1.5277667,-1.305449,-4.0025315,-3.421223,-5.5489497,6.6096067,-2.314931,5.8493924,-3.3816316,-0.9410752,-0.5540547,-0.5066118,1.913145
-1.1422983,0.3387305,-0.40770802,0.95396984,-0.86288804,-1.167098,-2.585678,-1.3853335,-0.837167,-0.32581767,-1.4978235,-1.789151,-1.149114,1.6747913,-0.7346383,4.553913,-1.4092697,-0.9421246,-1.2673792,-3.0161963
0.08013824,-2.5832765,10.14282,-4.7356706,6.2168803,-4.6301517,1.5450419,1.6126631,-6.285141,2.6366408,-2.671838,-10.393455,-6.0705085,-1.0292263,1.3561583,-3.9095318,-14.753884,6.12213,2.8587832,-8.333488
-1.9105717,1.4832032,-1.8319086,4.343905,4.6689553,-5.7828326,-5.211228,-7.1125,8.216572,-2.1390693,-5.9817343,-3.2941418,-1.467445,-9.824195,9.65297,1.297386,-2.5590243,-4.755623,-0.44078687,3.686964
1.4905107,3.0863645,-10.678224,-10.745097,3.8819911,-5.6831293,-8.591856,-8.820381,-16.461163,-18.732431,-14.211756,-7.663215,-8.986459,-0.58878905,-10.638344,2.0159254,-9.736962,3.454193,3.358366,8.352026
-1.42939,0.88813895,0.96282804,-2.9984548,1.9626619,-0.6116447,-2.8266282,-2.518816,-0.74191177,-3.767635,-1.5669562,-1.4597626,-0.8610382,-2.0912342,-1.6208923,6.349531,-1.4294577,-1.0838324,-0.3487791,-4.2593465
5.22684,-1.2919306,-3.0539663,-13.623332,-9.830499,6.9708676,-5.2083516,-8.183189,-11.84428,1.4297211,6.1529317,-8.668755,-3.796983,-3.274107,10.703757,-11.8264475,-8.720922,-5.944217,-5.4400105,-1.3596498
-0.83462185,0.5429627,0.9695476,-0.3959983,2.2977254,-0.7878708,-0.83363,-1.1399156,-1.1902546,-0.6540995,-1.0905676,-1.6556084,-0.9080561,-1.030508,-1.2544557,-0.59480584,-1.4704081,-1.1392431,-1.1020173,-1.3017585
-1.0598397,1.0459124,0.27191833,0.584124,1.7343552,-0.65503764,-2.9223692,-1.1477815,-1.1223725,-0.56403506,-1.1299067,-1.7045761,-1.4025303,-0.6687388,-1.3872215,-1.8061483,-1.5616468,-1.1170437,-1.1280671,-1.4402827
-0.663886,1.8675836,0.60368603,-3.5475032,-0.8337391,1.1205039,-5.5266304,-1.1670372,-0.8370554,-1.2437813,-1.0726866,-1.1714305,-1.7319425,-0.630823,-1.6754799,-3.8111618,-1.0730416,-1.0435064,-0.82019997,-1.4843962
-1.5060922,0.03199848,-0.9486501,4.553767,0.31930938,-7.501917,1.9774183,-6.643341,1.5177296,-1.0483338,5.521886,-2.922006,-3.2363229,5.760985,-6.6090484,-2.1674228,-8.790191,-0.061145503,1.469428,-13.769263
0.12220864,-0.09428194,1.2304745,-2.4921415,1.6741985,-1.3859215,0.40251917,-1.807049,-1.8324372,-0.76057357,-1.524939,-1.396805,-2.52124,-0.74635345,-2.3896542,-1.552944,-1.249266,-1.0667957,-0.8462325,-2.3243113
-1.0560776,0.38180548,0.06877847,-0.23920429,0.8699311,3.0811968,-2.660388,-0.903813,-0.34477228,2.0099905,-1.1836251,-1.8178198,-1.3453122,-1.0875708,-1.3345367,2.820516,-1.4015747,-1.124748,-1.4973242,-3.336
-2.6377525,1.8950969,6.4778857,-0.29697394,-14.241561,-0.11698387,-10.7454815,-6.138455,-9.140985,5.1578016,-12.574631,-5.4917445,-6.384017,-10.6848345,-2.4404664,-5.2829976,10.170129,-6.567822,5.2518926,0.94127077
-2.2481446,0.9204026,0.4724714,-8.136978,-5.8558755,0.117041826,3.0830183,-11.346857,-1.0300115,-3.2833145,3.1008,6.6963882,1.3114974,-0.49892446,3.133951,-2.0731542,1.3151853,-1.168865,-3.659965,-1.1142148
-1.1470561,1.3831807,0.22702254,-0.9562345,0.28258082,-0.8701509,-0.31926173,-1.627882,-1.2147117,-0.04956993,-0.9396629,-1.7294036,-1.8455237,-0.82533836,-1.8673186,-4.719982,-1.5873597,-1.0848527,-1.1905677,-2.530462
2.2248757,-6.1525426,2.0955665,-10.142478,-8.357412,-9.84024,-1.3964123,7.2625117,5.798757,0.77134764,5.1560984,-6.853893,5.1953096,-5.780692,-12.223584,1.6546215,-9.733603,-8.651362,-11.824004,2.663039
-0.998973,1.1682206,1.2295424,-2.2016206,1.9352441,1.5967892,-1.8322463,-1.573384,-1.1038791,-3.9761877,-0.4144209,-1.6174151,-1.3846583,-1.093647,-0.9888449,-1.3475362,-1.5542679,-1.8389847,-0.95608073,-2.1893203
-0.9578471,1.1531157,1.4028134,0.1893807,2.337204,0.22329621,-2.6160429,-1.277477,-1.0261849,-3.7730067,-0.8397451,-1.6453199,-1.2753776,-0.86085427,-1.2536258,-4.8685565,-1.4979271,-1.2131653,-1.193098,-1.2115402
-0.8296257,1.0156034,-0.22441125,-1.360587,0.2946629,1.6412376,-2.9358494,-1.1318693,-1.0101539,-0.7893306,-0.7632979,-1.62147,-1.3394619,-0.80180126,-0.8714974,-0.08716409,-1.4093959,-0.89236057,-1.1503739,-1.6841305
4.6546516,-1.4715589,-7.9982004,-5.5236826,-8.35553,-9.126043,0.7946723,-3.230432,-2.6240075,-7.0540957,-10.944444,9.938873,3.589872,-8.501824,4.3690977,-3.5673609,7.4811726,5.3110986,-5.628835,-11.244065
-0.49293292,0.43943834,0.63852483,1.2430878,-2.7468626,-1.6528105,-0.61066175,-3.4971578,-0.86901534,-0.49377257,-0.92534244,-1.1726677,-1.4633747,-0.70016104,-0.72811735,-4.016471,-1.1051267,-0.93927425,-0.8684637,-1.2021737
-1.2172663,1.0846251,-2.78358,1.6933701,-1.347365,-1.9882785,-3.002726,-1.4911399,-1.3814546,-0.12450622,1.9031224,-2.0199733,-2.284572,-3.2017205,-3.6691165,-0.14951703,-1.7785053,-1.0746181,-1.5139685,-2.6013305
-2.5471861,3.3085823,-1.1479267,-5.07247,-12.012151,-6.983799,6.185487,-2.8939764,8.048681,3.6871734,-2.6627762,-6.440172,-1.9426905,-7.427497,-3.5103133,3.6415923,-0.9704163,-1.6252345,-5.948679,-3.306949
-0.84037924,0.83293724,1.3764974,-2.7163057,2.4695213,-0.84765285,-2.4700253,-1.1515995,-1.0680159,-0.7683278,-1.0710468,-1.6756186,-0.6122917,-0.8840498,-0.77163804,-0.9355966,-1.4260266,-1.1412196,-1.1709044,-1.382557
-0.3445685,2.9329963,-4.0223393,-0.32786065,-4.1596913,-0.45709503,-0.99625635,-1.6095663,-0.99804866,-0.41732883,-0.74733764,-1.3594384,-1.7432686,-0.87356794,-3.9068773,-0.7806218,-1.1084342,-0.63674605,-0.71239346,-1.152812
-0.27024195,0.6768039,-2.1848867,1.9402221,-0.26045004,-2.4661493,-3.582415,-1.0897858,-0.8857112,-0.51710486,0.64760906,-1.3676275,1.5434428,-0.5015615,-1.6304348,0.20918779,-1.1449971,-0.5633762,-1.449705,-2.061134
-2.1539488,0.19325654,0.3727185,1.102448,-0.35990325,1.3919713,-5.456555,-6.9807796,-0.36157772,-1.9852648,7.3072405,-4.521721,-7.3337297,-9.840735,-0.37450862,5.4304366,-2.6054714,6.9309573,-5.486956,2.3918304
-2.1507754,1.6920439,0.75675905,-6.242128,-1.2759885,-2.3129077,-1.0902102,-3.5475328,-1.0559268,0.50503826,-1.2229732,-2.457448,-4.250345,-1.3019774,0.6588799,-0.34955183,1.986082,-0.89793044,-1.2052562,-1.2062603
-3.388431,1.8530877,1.6489564,4.9390216,-1.751487,-7.853455,-4.1433845,7.184268,-9.549068,-7.091544,-3.2793016,-2.0225341,-3.6979866,-9.025837,1.054023,-2.272869,4.387765,-1.3074026,-4.721969,-4.296658
-0.8867876,1.1303238,-0.30375624,-2.3944662,2.2839446,-0.66314715,-2.3591475,-1.3990046,-1.1059102,-0.7384352,-1.1166482,-1.749314,-1.427707,-0.8797365,-1.0577551,-0.6811167,-1.520794,-1.028359,-1.0996655,-1.4369408
-0.7410059,0.19322987,-0.61092293,-0.83355016,-1.5316046,-1.9081622,0.2856376,-2.8088267,-1.2018445,-0.60504556,-0.58141124,-1.4544752,-1.1222581,-0.42321163,-1.4295572,3.5902624,-1.1409502,-1.0697322,-0.99786174,-1.637793
-1.0109571,1.2485268,0.48044455,-1.032697,0.4516974,-1.0993514,-2.4936028,-1.2850126,-0.98048997,1.1295034,-3.143263,-1.7644006,-1.7422776,2.454303,-2.2675924,-0.10292324,-1.9532825,-1.1164565,-1.2256489,-2.197115
2.2025554,1.4406418,-2.2114725,-6.3896604,4.8366523,-5.8578877,2.717153,-5.5581174,0.13114679,-4.7312894,-2.1256993,-2.0455449,-2.629175,0.008643672,-1.2353015,2.2446227,0.20499058,-9.374206,-4.0382104,-5.9151134
-5.1322765,-1.5061295,-9.385316,-3.9337537,-5.495139,3.5076525,6.5837846,-0.70198566,-7.657325,1.9179204,-0.29897025,-4.2573786,-2.4911535,-2.7284484,-6.091656,6.9866695,2.7322645,1.3896079,8.05928,-4.3388467
-1.0954529,1.6455376,0.25212112,-0.7285858,-0.6361238,-0.2920727,-4.629829,-1.096931,-0.90275526,-0.6232639,1.1987556,-1.8440897,-1.526277,-0.9359847,-1.8570615,-2.0982084,-1.526743,-1.01906,-1.1938682,-1.8477927
-1.1294411,1.8217635,0.8791246,-2.384182,-2.8638482,-0.5356772,-3.37874,-1.1911803,-0.8513901,-0.2569649,-0.8021653,-1.7624959,0.78195584,-0.7817816,-1.5751096,-2.4721434,-2.3059137,-1.0034258,-1.1306758,-1.9940784
-0.16614269,-0.52591676,-0.02131632,1.340085,-0.3144994,-1.5400952,-1.3896961,-1.9791085,-0.81329364,0.2180307,-0.95978034,-1.3537892,-2.0050268,0.47906443,-2.1162062,-1.3602744,-1.2212125,-1.1403872,-1.014749,-2.015401
-1.0111904,1.1064696,0.90780485,1.8735307,-0.19725463,0.424996,-5.4050417,-1.2517333,-1.13978,-0.6722158,0.52319545,-1.6321868,-1.7916126,-1.2801356,-1.7724718,0.35745972,-1.6874391,-1.0458087,-1.2526433,-2.100621
-1.6546452,3.8361242,-2.8987882,-0.28716245,-7.6066604,-7.2200894,-3.6713617,-6.173707,0.24951397,-0.22463828,-3.0334902,-12.716657,4.0824075,13.178893,3.4902132,5.532211,-10.227419,-5.470311,-3.6001153,-5.590694
0.70018435,-1.1320685,-0.056103643,-2.2242584,1.8083488,-5.290344,-6.7170687,3.373848,-1.4769399,-7.737217,-7.852676,-3.0383017,-3.3470688,-0.6790213,-4.8366647,10.066666,1.3143183,-3.1734748,-4.5169845,-3.4695404
-1.2466539,1.8577257,1.126733,-2.22219,0.7823611,-1.9723254,-3.709134,-1.1057566,-1.2794853,-3.9465365,-0.98192716,-1.759332,0.09213359,2.5863032,-2.4906073,-8.908309,-1.7461876,-1.191648,-0.7531247,-2.249785
7.032613,-1.9700662,-4.8982034,3.6828723,1.8644004,-4.174871,-0.7411697,1.515264,-5.550931,-4.329815,-7.1122284,7.012948,-3.678567,-8.401085,-5.741308,-10.21813,-10.33266,-7.664936,9.563564,-6.494185
-0.21206374,0.32949182,0.80706406,-1.7356484,-0.34107324,-1.0935538,-3.438052,-0.8236021,-0.8643919,0.0019223038,-1.04565,-1.2144392,-0.9841844,-0.78347653,-1.004125,-0.76791304,-1.092527,-0.91053504,-0.89258516,-1.0236583
-1.1892375,0.8796793,1.5798857,-0.18797655,-1.3433275,-0.42686674,-3.5597858,-1.2389761,-0.8476218,-3.7724423,-1.0258863,-1.7430931,0.1404342,-0.13816231,-0.84521645,-2.2299917,-3.8853323,-2.8128502,1.2961985,-2.6338413
-0.17412154,0.53974664,-4.259263,2.4860268,-6.1627407,0.13908425,1.5486945,-0.8261105,-11.171533,6.800839,-4.6401,-12.940372,0.51298475,-9.115791,-8.754916,-6.594936,-0.56871855,-1.1511328,-6.6092925,9.577621