-0.5832139,0.5908425,-2.3516662,3.0422277,-5.892423,3.4689302,-3.231915,-1.5335871,3.2354171,4.7284675,-5.6049185,-1.2619077,-2.1927502,-4.3690066,-3.371637,0.2972031,-6.4326835,-0.9368843,-1.1128058,1.2541655
-0.42223826,-0.79978824,-0.23691016,-1.8774261,-4.8670835,6.651055,-1.722419,-1.4285098,-1.0504348,1.8731052,-1.9718614,-1.584179,0.42109823,-0.96199405,-2.1229177,0.53827155,-1.6254637,-0.8766421,-0.8685791,-2.2954826
-5.855776,0.15564984,2.2858481,7.0659904,9.951258,4.847272,2.761155,-4.018191,-8.10736,-22.596222,-13.109653,-0.45028993,3.5279818,-7.2790794,-15.598571,-10.547375,-8.036265,-15.557862,-17.222479,-10.551508
-2.9527202,0.56854975,-4.7020617,-0.81992817,0.66794366,3.2410433,0.5624352,1.0235223,-3.71427,1.2165406,-3.941188,-0.46292317,-2.3528795,-3.676885,-3.4604607,-2.6447945,-1.6281159,2.2092671,3.7096508,-3.2680001
-1.3283716,0.9901258,4.5533524,-2.456959,-2.6516297,-6.099442,-2.6729827,-1.5132471,-1.306834,-4.0017633,-3.4215407,-5.549755,6.773564,-2.5140812,5.987614,-3.3819306,-1.140926,-0.5318187,-0.4849574,1.9100248
-1.1422898,0.33824062,-0.40705666,0.95730627,-0.9265704,-1.1731981,-2.585624,-1.3853043,-0.8371055,-0.32577947,-1.4978356,-1.7884504,-1.1540512,1.6733696,-0.7344924,4.5539117,-1.4370376,-0.94213104,-1.2673749,-3.0171826
0.21671976,-3.063231,10.288732,-4.6313004,6.1792426,-4.6978745,1.9946933,1.36495,-6.289153,3.5417314,-2.671935,-10.404148,-6.4759183,-1.0296588,1.3840466,-3.9199052,-14.969582,5.1991634,2.6867058,-8.912543
-1.5140802,1.5191537,-1.8407824,4.62719,4.3917317,-7.7644663,-5.154243,-7.1114926,8.203597,-2.1419172,-4.3901434,-3.3278778,-1.470017,-9.967255,9.769352,1.2923936,-2.5929468,-4.757823,-0.44199684,3.1925786
1.6308261,2.4802139,-10.143254,-10.805271,3.7976472,-6.0400586,-8.170714,-8.800909,-16.46063,-18.728258,-14.211813,-7.7970657,-9.0367985,-0.65991825,-9.818745,2.0130038,-9.707135,3.6233754,3.4012494,8.206797
-1.4301265,0.9727536,0.95478547,-2.9872632,1.9586096,-3.2522626,-2.8534026,-2.4772432,-0.8302853,-3.7679288,-1.5690612,-0.59414613,-0.844044,-2.3616927,-1.59305,6.218328,-2.6148198,-0.8361675,1.9385705,-4.262836
5.3624086,-1.9282119,-3.1523807,-13.658497,-10.096139,7.0258665,-4.473259,-8.187378,-11.846429,1.4385247,6.2545676,-8.706634,-5.627588,-1.749033,11.058337,-11.825701,-8.754733,-5.9031744,-5.463222,-1.598603
-0.8346139,0.54288334,0.9706559,-0.3962033,2.297668,-0.78940296,-0.83379245,-1.1398616,-1.1901714,-0.65409434,-1.0906724,-1.6555946,-0.91127586,-1.030827,-1.25427,-0.59482557,-1.4710166,-1.1387663,-1.1020162,-1.3026559
-1.0598024,1.0468551,0.25582916,0.57648796,1.7305177,-0.4786443,-2.919717,-1.1433424,-1.1187159,-0.5644906,-1.1367114,-1.704382,-1.5604608,-0.55917394,-1.3858728,-1.8062786,-1.5688314,-1.1142757,-1.1282228,-1.4460342
-0.66320026,1.2692626,1.2124892,-4.081775,-0.84704924,1.6576824,-5.526503,-1.167142,-0.8372082,-1.2422742,-1.0735219,-1.1731195,-1.8080618,-0.6323902,-1.6745143,-3.8170123,-1.094,1.5200324,-0.8166325,-1.492853
-1.5195458,-0.26886916,-1.0577178,4.8762727,-0.18206057,-7.525542,2.6294467,-6.650321,1.586155,-1.0558604,5.267556,-2.975693,-5.248344,5.751047,-6.608493,-2.1747613,-8.801094,-0.060641326,1.4722466,-13.773541
0.12224042,-0.09460101,1.2305248,-2.5023036,1.6742073,-1.3859408,0.40525475,-1.8070669,-1.8329817,-0.76057595,-1.5249281,-1.3986436,-2.5363526,-0.74706185,-2.3896542,-1.5529673,-1.2493021,-1.066792,-0.84623396,-2.3252778
-1.0561007,0.37208384,0.06789746,-0.24034825,0.8669542,3.553125,-2.6644368,-0.9030782,-0.3442632,2.0099375,-1.1887418,-1.8074534,-1.3727939,-1.093172,-1.3462436,2.820483,-1.4181597,-1.1229558,-1.4973245,-3.3359427
-2.6649332,1.7260027,6.9252515,0.034028422,-14.310502,-0.08090006,-10.734528,-8.846623,-6.8053126,5.126462,-12.657564,-6.5767493,-6.7536445,-10.832017,-2.4226718,-5.2991242,9.781827,-6.5717707,5.2498813,0.88231814
-2.2487645,0.3988374,1.0552492,-8.091207,-5.870671,-0.15336809,3.582701,-12.81497,-1.5234394,-3.283927,3.2056048,5.260995,0.33205032,-0.21028715,3.2905378,-2.0751362,1.7044458,-1.1624722,-3.6622498,-1.1591966
-1.1470448,1.2936954,0.23527455,-1.3231332,0.27385193,-2.913254,-0.30540055,-1.6178838,-1.2245437,-0.049462743,-0.9536072,-1.7276548,-2.0917957,-0.6280075,-1.8613,-4.720857,-1.6059885,1.9188358,-1.1910125,-2.5397534
2.3503966,-6.4055004,2.776349,-10.604322,-8.392047,-9.63044,-2.1845787,6.767916,5.861634,0.6757898,5.779772,-8.510736,5.2959948,-4.779183,-12.326765,1.6509501,-9.424212,-8.601137,-11.828071,2.4311392
-0.9989542,1.2722759,1.2289622,-4.0145564,1.9340063,1.5888509,-1.8283362,-1.574256,-1.1047245,-3.9761534,-0.4143761,-1.6175206,-1.4018292,-1.0967065,-0.98961425,-1.3475432,-1.5617659,1.068047,-0.95609456,-2.1920323
-0.9578447,1.1528652,1.4033157,0.18773924,2.3370008,0.24268815,-2.6138818,-1.2783544,-1.0261177,-3.7730029,-0.8399183,-1.6453496,-1.2857586,-0.8593245,-1.2535013,-4.86856,-1.4985458,-1.2123988,-1.1930948,-1.2119571
-0.82952976,1.016185,-0.22040448,-1.3627481,0.28718534,1.6261107,-2.936541,-1.1310438,-1.0091149,-0.7890068,-0.7646262,-1.6124789,-1.4036651,-0.7676092,-0.8700243,-0.08737046,-1.4345783,-0.8923533,-1.1503221,-1.6951363
4.9302855,-1.5335071,-9.069163,-5.507667,-8.421832,-9.129733,1.090745,-3.0789127,-3.4385426,-7.0590725,-10.805246,9.585939,3.115315,-8.760927,4.7331176,-3.5684018,8.119925,5.5110292,-5.6126733,-11.834541
-0.49290553,0.13278691,1.2701652,1.2421205,-2.7472072,-1.6530555,-0.6102958,-3.4989417,-0.86899513,-0.49376464,-0.9254645,-1.1726853,-1.4693934,-0.6996414,-0.7282242,-4.016475,-1.105404,-0.9390781,-0.8684634,-1.2034721
-1.2171961,1.3201957,-2.799057,1.6767948,-1.3706995,-4.5156684,-3.00242,-1.4922466,-1.3837079,-0.12337846,1.9026008,-1.9886158,-2.3815608,-3.2765784,-3.6681976,-0.15106432,-1.8175194,-1.074614,-1.513855,-2.6347823
-2.5358903,2.6242528,-0.43851772,-4.2351913,-12.056243,-7.0444837,6.1904526,-3.1619232,8.026677,4.455893,-2.6759906,-7.4593577,-0.5476254,-7.693673,-3.5108047,3.6364586,-2.6797845,-3.1083417,-6.143601,-3.3293083
-0.84030885,0.8271582,1.3757552,-2.7434902,2.4680061,-0.93902814,-2.4727948,-1.150184,-1.0643247,-0.7678906,-1.0758436,-1.6753957,-0.94598037,-0.7427613,-0.76773274,-0.9360163,-1.4495769,-0.37354818,-1.1708927,-1.3931857
-0.34263328,4.392051,-4.010931,-2.813181,-4.160462,-0.4182091,-0.99561405,-1.608945,-1.0025047,-0.41599086,-0.7478836,-1.3310077,-1.7661883,-0.8899681,-3.9087684,-0.7899325,-1.1471785,2.415332,-0.712184,-1.2299573
-0.26732343,0.6762738,-2.1805196,1.9384826,-0.26302937,-2.466927,-3.582416,-1.0897695,-0.8857341,-0.5170088,0.64761776,-1.3674765,1.5419352,-0.5097641,-1.6302422,0.20848143,-1.1467869,-0.56302077,-1.4496865,-2.1608696
-2.1528401,0.040647976,0.16704579,1.5449674,-0.6639539,0.89171624,-5.458882,-7.007425,-0.37424365,-1.988491,7.3680725,-4.52227,-8.01869,-10.14571,-0.40371382,5.4277563,-2.61178,7.1470437,-5.493262,2.3729644
-2.1508634,1.6833531,0.8075467,-7.158336,-1.2764457,-2.3277304,-1.0900942,-3.5469766,-1.0559376,0.5050639,-1.2230414,-2.4583247,-4.2858925,-1.8280026,0.6588246,-0.35000402,1.9479883,-0.8977889,-1.2052805,-1.2072412
-3.0402288,1.1345435,2.0715907,5.5364213,-1.04251,-7.7616816,-3.7116702,6.926131,-9.566204,-5.6934624,-3.2849379,-3.1163156,-4.8483076,-9.095152,1.1588175,-2.2780645,3.766971,-3.1768482,-5.19084,-5.0471487
-0.8867423,1.0759197,-0.2972372,-2.350868,2.2832987,-0.65402204,-2.3485498,-1.3984976,-1.1046433,-0.73795646,-1.1181247,-1.7486858,-1.6077231,-0.7284677,-1.0556529,-0.68127924,-1.537107,1.1558013,-1.0996759,-1.4431044
-0.7409019,-0.024599854,-0.19168474,-0.82753146,-1.5354041,-1.9114708,0.28557482,-2.8088408,-1.201867,-0.60501593,-0.5831338,-1.4542145,-1.1266811,-0.42334285,-1.4296923,3.5902174,-1.1419351,-1.0696533,-0.9978627,-1.6418263
-1.0107472,1.1547734,0.49487212,-1.6278552,0.44510785,-1.1310229,-2.493515,-1.282588,-0.9800937,1.1224093,-3.1449764,-1.76457,-1.7652832,2.4526153,-2.2658868,-0.10338463,-1.9604506,1.7386932,-1.226594,-2.2261372
2.2046354,1.4469266,-2.214389,-6.403073,4.8135376,-5.864329,2.7463374,-5.5580144,0.1721755,-4.733838,-2.1300242,-2.088609,-3.0126348,-0.011339632,-1.2407366,2.2409527,0.08839187,-9.374358,-4.0386186,-5.919891
-5.1235094,-1.7113603,-9.385392,-4.5632553,-5.5079703,3.479222,6.6530747,-1.0394114,-7.679194,2.710738,-0.29438272,-4.369228,-1.5213991,-3.329102,-5.972683,6.8234243,2.68514,-0.34825918,8.198844,-4.363752
-1.0952303,1.6592972,0.24225746,-0.6903488,-0.83615714,-0.77878934,-4.627557,-1.0999737,-0.91409516,-0.6233903,1.2017555,-1.7956545,-1.5753134,-1.0270914,-1.8500159,-2.127529,-1.6690392,-1.0177826,-1.1027229,-1.8747623
-1.1294723,1.2093447,1.678525,-2.3767726,-2.8722656,-0.60046375,-3.379265,-1.1908449,-0.8513722,-0.2562316,-0.8013879,-1.7554065,0.7365929,-0.81810415,-1.5733304,-2.472462,-2.3363514,-1.0027349,-1.1306682,-1.9944088
-0.16566515,-0.5257096,-0.021173012,1.3390936,-0.32359177,-1.567078,-1.3896835,-1.9789846,-0.81324697,0.21810421,-0.959891,-1.3538074,-2.0420396,0.5429107,-2.1159542,-1.3603408,-1.2236341,-1.1400776,-1.0152557,-2.0208833
-1.0111821,0.5077846,1.7074435,1.8736539,-0.21200676,0.34753737,-5.405335,-1.2518222,-1.139444,-0.6725178,0.5195366,-1.5944915,-2.1251266,-1.3459222,-1.771135,0.35722545,-1.7332058,-1.0458988,-1.2523525,-2.1044936
-1.7246443,3.4562159,-2.4279613,-0.017533125,-7.8047237,-7.2845163,-3.4597924,-6.58325,0.1944415,0.7856518,-3.2153678,-12.711428,2.6972396,13.867942,3.8678455,5.5257463,-10.237904,-5.4819856,-3.599417,-5.6043334
0.6967797,-1.1271558,-0.030030718,-2.271384,1.7920576,-5.4870105,-6.708986,3.3796172,-1.478204,-7.7377286,-7.8533735,-3.0378668,-3.5341792,-0.59784794,-4.8325315,10.067091,1.3119105,-3.1737936,-4.515803,-3.4665823
-1.2466615,1.8531322,1.1219469,-2.070238,0.7776144,-2.0286188,-3.7083213,-1.1059375,-1.2805787,-3.9465325,-0.9821999,-1.7594277,0.059053134,2.5861795,-2.4916048,-8.908377,-1.7522902,-0.9973214,-0.7531196,-2.2501664
6.914457,-2.253208,-4.9225783,4.154372,1.376264,-4.2064724,-0.5576528,1.5465713,-5.574469,-4.340698,-7.121976,6.7970095,-3.7560298,-8.585951,-5.709544,-10.218339,-10.441776,-7.665837,9.652902,-6.397415
-0.21118183,0.16579266,1.1562343,-1.7517507,-0.3447706,-1.0963774,-3.4378307,-0.82362664,-0.8644374,0.0020347624,-1.0456355,-1.2144138,-1.0044725,-0.77994466,-1.0034956,-0.7680846,-1.094412,-0.9070975,-0.89256114,-1.0551375
-1.1891239,-0.12140098,2.3924882,0.59601194,-1.3532948,-2.7509956,-3.476959,-1.2686327,-0.86940014,-3.7719347,-1.0273359,-1.7456845,-0.0763013,-0.1976033,-0.82419544,-2.2342517,-3.962961,-2.0105877,1.3362743,-2.657872
0.10806021,0.5281375,-4.463893,2.9880378,-6.2596335,0.14101541,1.0796244,-0.86001146,-11.179799,7.953871,-4.6280265,-12.974712,0.14524026,-10.468096,-8.697763,-6.5982246,-0.5595514,-0.8068699,-6.6003017,9.340523