-0.33271253,0.9409136,-0.6581036,0.6154815,-0.68379295,-0.012964157,-1.4647143,-1.2822125,-0.6510436,0.015792457,-1.0479685,-1.6148844,-0.6283886,-0.8208539,-0.8839817,0.6998427,-1.5579914,-0.69746894,-0.9980163,-1.1239524
-0.41821527,0.7080214,0.3674802,-1.1872616,-2.6111848,1.9677758,0.20804211,-1.2338287,-1.0573199,-0.392252,-0.7512328,-1.4354621,-1.4321496,-0.91996294,-0.8622601,0.7577478,-1.3486575,-0.8019376,-0.86906314,-0.9338856
-3.1408415,0.8153796,2.0951965,5.072441,6.361511,5.3910594,1.7478356,-1.9192058,-6.0486856,-10.017275,-8.8156185,-0.14870857,3.1532154,-3.2812085,-8.121929,-6.50638,-6.868302,-9.25887,-10.137743,-8.798324
-0.011035032,0.75435656,-1.3152047,-1.1527257,-0.54679805,0.5315415,-1.3157219,-0.3324785,-1.040013,-0.57275176,-0.46604186,-1.1488862,-0.9450057,-0.88341665,-1.0060161,-0.56554717,-1.0560282,-0.9174864,-0.8093508,-1.5796736
-0.3175411,0.7406469,1.4463366,-1.9652448,-1.3699163,-2.1538007,-0.18374182,-1.0558829,-1.1110132,-0.5256905,-0.7478267,-1.8328872,0.19543944,-1.9696665,3.1325707,-0.1149662,-1.2421016,-0.9561236,-0.90564203,-1.0752732
-0.9257785,0.81577456,0.9623678,0.14273977,-0.59283954,-0.6271373,-0.17566523,-1.0501039,-1.14717,-0.60696906,-0.9492709,-1.6712703,-1.0796571,-1.1511227,-1.2401725,1.0922214,-1.4453828,-1.1172493,-1.2161143,-1.4066346
-0.55202484,-0.717293,6.306916,-2.182343,5.328696,-0.71449643,0.31003916,1.7256328,-3.7442186,3.2915728,-0.91975635,-3.0263412,-3.6174395,-2.5140498,1.3230894,-2.0382402,-6.189946,3.0884802,0.095838144,-5.1109376
-0.60864943,0.5149205,0.70936257,1.6486514,2.8995016,-1.8329734,-1.2149086,-2.3825157,1.2031345,-1.38445,-2.3665946,-2.2456665,-2.9756954,-3.780969,4.548189,-0.21929865,-2.8506424,-2.7873027,0.85908914,1.6298677
0.21806204,0.051480517,-6.759351,-9.604107,1.767956,-5.6281414,-4.93221,-5.749483,-12.747869,-8.835777,-10.4501,-9.113832,-8.2701025,-0.5139011,-7.0721154,1.2229438,-5.0440755,2.9626572,2.4363973,5.299444
-0.9379885,0.73833686,1.1615328,-0.005078127,-0.6599614,-0.6526346,0.078798905,-0.9865411,-1.0080091,-0.54682493,-1.0629537,-1.5841496,-1.0401758,-0.8275053,-1.2222502,2.4155126,-1.5187122,-1.1332555,-1.2020898,-1.4738946
2.667247,-1.0022179,-4.1944194,-9.512659,-7.908332,5.1097445,-3.0269265,-5.1081977,-8.246087,0.26337406,6.0289364,-7.989371,-3.1671748,-2.7874384,5.5368276,-6.6125045,-6.1964474,-3.936984,-3.1448724,-1.7469609
-0.8339637,0.8718231,0.92351,-0.0354009,-0.6232053,-0.6568333,-0.32315996,-1.0351931,-1.2524303,-0.6709209,-1.0947253,-1.6464741,-0.90581083,-1.0225409,-1.2570914,-0.4567616,-1.4673916,-1.137953,-1.1028959,-1.2815428
-0.8765271,0.8770106,0.8235198,-0.23452713,-0.58610785,-0.43885005,-0.16893451,-1.0825027,-1.1560785,-0.5580369,-1.1092612,-1.6850793,-1.1552889,-1.0170897,-1.2291398,-0.8436878,-1.5486982,-1.1177301,-1.1304915,-1.3199852
-0.32177153,0.7215344,0.9823524,-1.7858969,-0.6462929,-0.71062905,-0.29470736,-0.7057808,-0.885128,-0.6069749,-0.8957267,-1.1735021,-1.1726766,-0.7734275,-0.24847394,-0.48323378,-1.1461035,-0.8059713,-0.7874661,-0.96610534
-0.95219374,1.015077,-0.7745713,5.068986,-2.3622649,-3.3201723,2.0180688,-4.3826323,1.4108745,-1.4208187,0.41559136,-1.5923429,-4.012997,1.3152297,-3.5172992,-0.64154243,-3.933823,-0.82655144,-1.511175,-2.7654426
0.025912823,0.37883565,0.16971385,-0.46721137,-0.6711089,-0.7485362,0.45754698,-0.8731321,-1.1485485,-0.6889306,-0.91310316,-1.3550705,-0.7598938,-0.75465953,-0.8171809,-1.1418525,-1.2670647,-0.93934953,-0.8297314,-1.4252887
-0.90459424,0.88461214,0.8473944,0.31833372,-0.6691998,-0.54064167,-0.2271623,-1.0739976,-1.1794922,-0.61757815,-1.0786111,-1.7552934,-1.2539389,-1.0949247,-1.3118926,0.8206058,-1.561444,-1.0729804,-1.1428349,-1.34895
-1.1614418,0.7074584,5.749938,0.6711622,-7.4655313,0.47273248,-5.51398,-6.042239,-4.638949,3.6499834,-5.4075685,-6.1753607,-6.8307,-6.3518367,-1.3606278,-1.3937277,7.1766315,-6.4135866,3.3980827,1.8057363
-0.31428635,0.7793391,2.0994618,-4.314686,-2.7695506,1.8761808,0.51581013,-2.780691,-2.312517,-0.69514763,-0.3276126,-1.4228994,-1.6887331,0.20773456,0.7808969,-0.057264794,-1.4491132,-0.95393413,-0.91391176,-1.4280423
-0.9460609,0.92754465,0.65547824,-0.14692141,-0.710253,-0.33115706,0.57801574,-1.1699207,-1.2495086,-0.8708746,-0.99073774,-1.6623642,-1.239725,-1.2199366,-1.397585,-0.9512984,-1.5604364,-1.1295875,-1.0906485,-1.5450915
0.6349808,-4.2430825,1.018442,-6.3142047,-4.654459,-5.6515646,-1.1374017,5.099173,5.5665364,-0.26925576,3.3749113,-8.113165,2.4814715,-4.728826,-8.033382,1.6995964,-6.3835287,-3.853736,-5.988854,0.6392194
-0.8885315,0.84293294,0.98469317,0.38240534,-0.5808022,-0.64026785,-0.2696924,-1.0935571,-1.1397913,-0.67213243,-1.0846364,-1.5835432,-1.4680332,-1.0734888,-1.0462534,-0.73343444,-1.5257337,-1.1262864,-1.1066258,-1.2549808
-0.9090457,0.84668934,1.0080447,-0.0101889735,-0.43972364,-0.25856978,0.25374398,-0.8893158,-1.0994852,-0.5873912,-0.8450398,-1.6265179,-1.1623926,-0.8589926,-1.18778,-0.21645494,-1.4749792,-1.2100534,-1.1912626,-1.1946582
-0.82257175,0.86214906,0.7967809,-0.06117629,-0.65555215,-0.65365714,-0.33000225,-0.9708134,-1.1454737,-0.78281957,-1.0862797,-1.583718,-1.178446,-1.0268313,-1.1503829,-0.10102137,-1.4689673,-1.1059796,-1.1322047,-1.3336114
2.2197056,-1.973378,-4.592224,-3.2250051,-4.995111,-2.8224723,0.3833698,-2.6827548,-1.465143,-2.4524884,-6.911535,6.9282975,2.0261312,-7.228964,3.1583521,-1.3118224,4.5360303,3.522942,-3.908226,-7.082308
-0.26383168,0.739467,0.83652806,-0.79255456,-0.2505427,-0.6487772,0.0074175154,-0.8438803,-0.9082631,-0.49936786,-0.91301584,-1.1854948,-1.1064056,-0.8404576,-0.39723292,-0.72890013,-1.112775,-0.8961334,-0.86149377,-0.94787943
-0.938105,0.8980806,0.8168159,-0.14536878,-0.7437502,-0.39410233,0.7530272,-1.1531163,-1.3692892,-0.7623574,-0.92344826,-1.8192483,-1.5329576,-0.9527773,-1.5456295,0.69324785,-1.5309249,-1.1900792,-1.339442,-1.4098706
-1.0410918,1.8996749,-1.0341748,-3.8799846,-4.7294855,-4.765808,5.6961527,-2.187786,7.174311,4.3838267,-1.0763842,-6.710228,-3.2953231,-4.71799,-2.9126494,2.1065104,-0.6393151,-3.1840637,-2.9180958,-2.5445223
-0.83792967,0.8501685,0.94962204,-0.0010122822,-0.4230473,-0.5370502,0.28270087,-0.9978378,-1.1439621,-0.7113983,-1.117117,-1.6388096,-1.0500708,-1.0038357,-1.0290058,-0.7632063,-1.4439007,-1.1688839,-1.1840028,-1.0834873
-0.311851,0.8316765,0.4675886,-1.135439,-0.7699704,0.1336614,0.80157244,-0.9677545,-0.99440086,-0.5974946,-0.66549665,-1.3787171,-1.1768258,-0.7580287,-0.7984686,-0.08629903,-1.0770043,-0.81549686,-0.72988665,-1.0809401
-0.22478803,0.64374465,0.9359219,-0.6081031,-0.42837614,-0.527652,-0.44395098,-0.83036304,-0.96004254,-0.6257621,-0.6385681,-1.3500437,-0.76872253,-0.9692926,-0.15602496,-0.28300506,-1.1362301,-0.822525,-0.8794677,-1.0239369
-0.92993,0.68410254,0.41044083,3.286904,-1.6374311,-1.0094398,-3.3770914,-4.179253,-2.393142,-0.5866673,2.9550807,-3.6625473,-4.7194076,-5.999966,2.9313416,1.6369635,-1.8218213,3.4860275,-4.650468,2.3117082
-0.5812045,0.79995364,0.8948302,-1.6231674,-0.25430146,0.6599775,0.65131205,-1.1080256,-1.052433,-0.7702099,-0.65545875,-1.4877917,-1.8770567,-1.2413946,1.2783235,0.05072815,0.15398668,-0.90462947,-1.0003077,-1.0021555
-0.8543416,0.3386129,1.0373448,2.7386255,-1.8503038,-3.982679,-3.0973885,4.532067,-4.0470896,0.18368854,-1.8249645,-0.25301814,-0.14814468,-4.6429253,0.9819625,-0.16517787,4.2190824,-1.9350061,-2.8295207,-4.1726823
-0.8842192,0.85204166,0.956799,0.41531986,-0.6077188,-0.4270355,-0.24770528,-1.0490686,-1.1744144,-0.6585022,-1.1129833,-1.7224262,-1.0608438,-0.9743914,-1.1457863,-0.43279964,-1.4836695,-1.0715678,-1.0980176,-1.297026
-0.36878026,0.6763905,0.7601539,-0.81667143,-0.84933084,-0.6618301,0.8523382,-0.9262698,-1.0681777,-0.65336585,-0.54008734,-1.3894155,-0.8357653,-0.40141213,-0.8094824,1.1597006,-1.1499583,-0.928611,-0.9668896,-1.1442822
-0.9211889,0.844416,0.9806378,0.029731568,-0.41864425,-0.29377177,-0.14117555,-1.0604123,-1.0568955,0.0018125537,-1.0184258,-1.709135,-1.2756071,-0.9515896,-1.2101455,-0.47335202,-1.6707685,-1.1332531,-1.2032118,-1.2489623
0.67234725,0.14226231,-1.8878313,-1.319094,3.1298456,-1.60723,1.7866873,-1.8334265,-0.42676494,-0.5664742,-2.0374625,-1.393505,-1.1914496,-1.072613,-2.0525203,1.4645108,-1.4978898,-3.1180463,-3.154826,-2.5321507
-0.27370095,-0.36150742,-2.4446516,-1.0032116,-2.3202362,2.723309,3.8866074,-0.9255893,-4.504094,1.8125598,1.6264186,-6.141287,-0.65762496,-3.5138838,-2.2424567,2.1735022,3.4627287,-2.9743137,5.762931,-2.397951
-0.9075244,0.8722047,0.78950316,0.04710726,-0.7572092,-0.56932026,-0.34624302,-0.9621332,-1.071887,-0.75580114,-0.98234713,-1.7470828,-1.2064885,-1.1297125,-1.2091061,0.19303916,-1.4180725,-1.0601004,-1.1627419,-1.4451159
-0.93257725,0.8648341,0.8369456,0.63846564,-0.65220207,-0.63679165,-0.26757514,-1.0442021,-1.1923609,-0.69383115,-0.7943203,-1.7462094,-1.3842361,-1.037107,-1.3102294,-0.204396,-1.6097218,-1.188172,-0.98977363,-1.2860756
-0.16520421,0.6998514,0.26776758,-0.94471425,-0.40347156,-0.55706763,-0.0356884,-0.7887105,-0.86885655,-0.39155498,-0.8076987,-1.3088957,-0.91510016,-0.86835104,-0.76306576,-0.9814151,-1.2448025,-0.9061317,-0.8791692,-1.0141093
-0.8919836,0.87348694,0.81451803,-0.054902792,-0.6216801,-0.60744125,-0.27257892,-1.0327821,-1.1990017,-0.6665072,-0.99028814,-1.621422,-1.3855324,-1.1822032,-1.1775264,0.7461322,-1.5992475,-1.1209922,-1.2065858,-1.4956105
-0.86716896,2.1123674,-1.1246444,0.24091032,-2.7181563,-4.004322,-5.6540203,-5.910886,-0.2297323,0.25504246,-2.073783,-5.960336,4.012597,8.685807,2.0359976,0.99161804,-6.91383,-5.645529,-2.2137287,-6.3073874
-0.7629031,0.79880196,0.5714845,0.39133257,-1.2281699,-1.0316304,-0.20248379,-0.24407277,-2.1432292,-0.78124154,-1.3784723,-1.8596076,-1.9527558,-0.86918986,-1.7438687,5.1757503,-1.8338739,-2.6719034,-2.1771631,-1.0494345
-0.9507422,0.85328114,0.9914573,0.3348816,-0.3774226,-0.67042905,0.107283115,-1.1273159,-1.2449788,-0.7528194,-0.8761357,-1.6789963,-1.4082084,-1.185651,-1.4218193,-1.1719388,-1.683774,-1.1196418,-1.0650114,-1.3334179
1.8592418,-0.9448876,-4.0521126,0.63785183,1.248591,-2.3552134,0.7767856,0.14550933,-2.5259376,-4.0903244,-4.7588773,1.3490592,-1.6214751,-4.90321,-4.322095,-4.1353183,-5.5462008,-3.9833312,5.8273654,-3.694525
-0.20013262,0.624737,0.8662651,-0.5490821,-0.31612715,-0.65842795,-0.38627553,-0.76837873,-0.89747757,-0.51107365,-0.78280115,-1.2134774,-0.87716556,-0.7815357,-0.7208311,-0.54220974,-1.0870436,-0.89303094,-0.911488,-0.92718697
-0.9182445,0.8608318,0.93505526,0.25419033,-0.456834,-0.37048307,-0.4258315,-1.1017056,-1.0551538,-0.70478266,-1.0810956,-1.5767559,-1.3288201,-1.0865692,-1.1482806,-0.3335507,-1.525086,-1.0241102,-1.0851858,-1.2717997
0.81171185,-0.9733579,-4.124559,2.8683324,-2.2405365,1.2389246,1.341135,-3.088348,-6.2537365,1.167207,-2.3332691,-8.575108,1.1648822,-4.279325,-3.7110295,-3.3378117,0.06337374,-1.5656964,-5.6182528,5.23027